"","unemployment_rate","percent_poverty","no_health_insurance","ed_percent_highschool","has_internet","percent_single_parent","percent_less_35k","state_county_fips","weighted_unemployment_rate","weighted_percent_poverty","weighted_no_health_insurance","weighted_ed_percent_highschool","weighted_has_internet","weighted_percent_single_parent","weighted_percent_less_35k"
"1",1.90521772656871,1.01922453760992,-0.432608750381459,-0.986582535827773,-0.929741566436959,0.0624431898062687,1.24019438520149,1107,0.656825334566657,0.462110754900669,-0.137512339515358,0.398280547693156,0.361556630085693,0.0181903412282622,0.519522827805012
"2",2.29696940032978,2.74850547912868,1.10288413978606,-0.538925125702157,-2.01198684883741,0.714258812302271,2.82200677607129,1119,0.791882037323976,1.2461571468709,0.350571222016743,0.217562531704623,0.782418696875279,0.208070913119292,1.18215092559967
"3",0.436148949964686,0.379390589247973,-0.163897494602143,0.495317856312193,0.317417282805461,0.931530686467605,0.0226151106503963,1073,0.150362699226712,0.172013589871686,-0.05209771624724,-0.199958401786121,-0.123436799262305,0.271364437082968,0.00947356831833123
"4",1.12171437904656,1.00193172819473,-0.0295418667124846,-0.940273148573399,-1.81615198821256,0.0624431898062687,1.79174738991267,1023,0.38671192905202,0.454270290980967,-0.00939040461318123,0.379585580521928,0.706262703837163,0.0181903412282622,0.750570782957097
"5",0.599378814031799,1.01922453760992,0.162394744558456,-1.51142225804401,-0.991584154002699,0.279715063971603,0.70945470142281,1059,0.206636325375595,0.462110754900669,0.0516200405783313,0.610156842300399,0.385605891045098,0.0814838651919388,0.297193663413382
"6",4.97393917103044,2.59287019439199,0.738204578371277,-0.492615738447785,-3.19730311051409,0.279715063971603,2.23923378996137,1099,1.71476950616565,1.17559297159358,0.234651376152869,0.198867564533397,1.24336286526387,0.0814838651919388,0.938024784306903
"7",-0.412646343184304,0.794418015212477,0.757398239498371,-1.9436432057515,-0.919434468509336,0.171079126888936,0.948807892146531,1049,-0.142260156747478,0.36018472394454,0.24075242067202,0.784643202565188,0.357548419925793,0.0498371032101006,0.397459757158627
"8",2.39490731877005,1.08839577527067,0.853366545133841,-0.801344986810276,-1.54816744209436,0.098655168833825,1.37548097126273,1053,0.825646213013305,0.493472610579478,0.271257643267776,0.323500679008245,0.602049239679742,0.0287392618888751,0.576194967747976
"9",0.501440895591531,0.742539586966914,-0.106316511220861,-1.03289192308215,-1.19772611255517,-0.734220348799956,1.24019438520149,1075,0.172872149686265,0.336663332185433,-0.0337945826897863,0.416975514864382,0.465770094243115,-0.213885913305218,0.519522827805012
"10",-0.184124533490345,0.535025873984662,0.219975727939738,-1.17182008484527,-0.52776474725965,-0.154828684359065,0.7927079851528,1111,-0.0634770801390422,0.242577765149006,0.0699231741357852,0.473060416378065,0.205236433849561,-0.0451031827354142,0.332068826455206
"11",0.272919085897573,0.32751216100241,-0.279059461364707,-1.26443885935402,-1.46571065867337,-0.263464621441732,0.386848226969101,1079,0.0940890730778296,0.148492198112579,-0.0887039833621476,0.510450350720519,0.569983558400535,-0.0767499447172525,0.162052406626313
"12",-0.216770506303768,0.292926542172035,-0.470996072635648,0.572500168402816,0.853386375041874,0.569410896192049,0.314001603705359,1081,-0.0747318053688187,0.132811270273174,-0.14971442855366,-0.231116680404833,-0.331863727577148,0.165875230476841,0.131536638964716
"13",-0.282062451930613,0.396683398663161,-0.298253122491801,-0.84765437406465,-0.424693767983418,0.243503084944047,1.26100770613399,1093,-0.0972412558283718,0.179854053791388,-0.0948050278812988,0.342195646179473,0.165154332250554,0.070934944531326,0.528241618565468
"14",0.403502977151263,1.33049510708329,0.0472327777958916,-0.785908524392153,-1.20803321048279,1.00395464452272,1.20897440380275,1013,0.139107973996936,0.60323910545531,0.0150137734634238,0.317269023284504,0.469778304403015,0.292462278404194,0.506444641664328
"15",0.37085700433784,0.638782730475788,0.18158840568555,0.0167875213503289,-0.053638242588977,1.00395464452272,0.334814924637857,1097,0.127853248767159,0.289620548667219,0.0577210850974826,-0.00677707435010458,0.0208587664941238,0.292462278404194,0.140255429725172
"16",0.436148949964686,0.673368349306163,-0.106316511220861,-0.739599137137777,-0.744213803739739,-0.44452451657951,0.907181250281535,1071,0.150362699226712,0.305301476506624,-0.0337945826897863,0.298574056113275,0.289408847207479,-0.129494548020316,0.380022175637715
"17",1.18700632467341,0.6214899210606,-0.183091155729237,-0.878527298900899,-0.455615061766286,0.822894749384939,0.855147947950292,1121,0.409221379511573,0.281780084747517,-0.0581987607663913,0.354658957626958,0.177178962730256,0.23971767510113,0.358225198736574
"18",1.77463383531502,3.23270414275394,0.584655289354524,-0.955709610991522,-3.10453922916548,1.11259058160538,3.30071315751873,1105,0.611806433647551,1.46569013662256,0.185843019999659,0.38581723624567,1.20728897382476,0.324109040386032,1.38268311309016
"19",1.18700632467341,0.84629644345804,0.0856201000500795,-0.955709610991522,-0.764827999594986,0.0262312107787135,0.917587910747783,1127,0.409221379511573,0.383706115703647,0.0272158625017263,0.38581723624567,0.29742526752728,0.00764142056764958,0.384381571017942
"20",0.468794922778109,0.10270563860497,0.623042611608713,-1.60404103255276,-1.24926160219328,-1.24118805518574,1.06328115727527,1029,0.161617424456489,0.0465661671564493,0.198045109037962,0.647546776642854,0.485811145042619,-0.361570802553797,0.445413106341135
"21",2.65607510127743,1.78010815187817,0.872560206260935,-1.11007423517277,-3.01177534781687,0.64183485424716,1.90622065504141,1035,0.915684014851517,0.807091167367569,0.277358687786928,0.448133793483095,1.17121508238566,0.186973071798066,0.798524132139606
"22",2.7540130197177,3.76878123462475,0.37352501695649,-1.48054933320776,-2.87778307475776,1.58334630896361,2.82200677607129,1063,0.949448190540847,1.70874451813333,0.118731530288995,0.597693530852914,1.11910835030695,0.461245008973998,1.18215092559967
"23",1.97050967219555,1.53800882006555,0.219975727939738,-2.02082551784212,-1.31110418975902,1.47471037188094,1.55239419918895,1005,0.67933478502621,0.697324672491737,0.0699231741357852,0.8158014811839,0.509860406002023,0.42959824699216,0.650304689211853
"24",0.599378814031799,0.0508272103594075,-0.586158039398212,-0.631543900210906,-0.816363489233103,-0.444524516579511,0.282781622306614,1007,0.206636325375595,0.0230447753973426,-0.186320695668568,0.254952466047079,0.317466318326784,-0.129494548020316,0.118458452824032
"25",1.87257175375528,3.12894728626281,0.56546162822743,-2.28324537895024,-2.11505782811364,4.22682077797517,1.90622065504141,1011,0.64557060933688,1.41864735310435,0.179741975480508,0.921739628487521,0.822500798474287,1.23131621719873,0.798524132139606
"26",1.21965229748683,0.569611492815037,-0.144703833475049,-0.461742813611534,0.111275324252995,0.786682770357382,0.418068208367847,1015,0.420476104741349,0.25825869298841,-0.0459966717280887,0.186404253085911,-0.0432725960642888,0.229168754440517,0.175130592766997
"27",0.0117513033901911,0.413976208078348,0.200782066812644,-0.8167814492284,-0.733906705812116,0.750470791329827,1.09450113867401,1017,0.00405127123961715,0.18769451771109,0.0638221296166338,0.329732334731988,0.285400637047578,0.218619833779904,0.458491292481819
"28",2.88459691097139,1.07110296585548,-0.0487355278395787,-0.724162674719654,-2.33150688459373,-0.408312537551955,1.52117421779021,1025,0.994467091459953,0.485632146659776,-0.0154914491323325,0.292342400389534,0.906673211832204,-0.118945627359704,0.637226503071169
"29",0.664670759658645,0.362097779832785,-0.547770717144024,-1.01745546066402,-0.599914432753014,-0.227252642414176,1.13612778053901,1057,0.229145775835148,0.164173125951983,-0.174118606630265,0.410743859140641,0.233293904968868,-0.0662010240566396,0.475928874002731
"30",0.403502977151263,0.863589252873228,-0.0103482055853905,-0.075831253158419,0.585401828923666,1.8368301621565,0.241154980441618,1101,0.139107973996936,0.391546579623349,-0.00328936009402997,0.0306128599923502,-0.227650263419726,0.535087453598287,0.10102087130312
"31",0.0443972762036138,0.725246777551726,0.814979222879653,-0.955709610991522,0.0288185408320095,0.279715063971603,0.647014738625318,1095,0.0153059964693937,0.328822868265731,0.259055554229474,0.38581723624567,-0.0112069147850827,0.0814838651919388,0.271037291132014
"32",-0.477938288811149,-0.087515264962094,-0.0295418667124846,-0.986582535827773,-0.424693767983418,-0.408312537551954,0.147495036245381,1009,-0.164769607207031,-0.0396789359602756,-0.00939040461318123,0.398280547693156,0.165154332250554,-0.118945627359703,0.0617863128810677
"33",0.109689221830459,0.0162415915290319,-0.0679291889666725,-0.863090836482776,-0.167016319792835,-0.480736495607066,0.324408264171608,1067,0.0378154469289468,0.00736384755793796,-0.0215924936514837,0.348427301903216,0.0649490782530333,-0.140043468680929,0.135896034344944
"34",0.0443972762036138,-0.243150549698783,-0.279059461364707,0.711428330165936,1.1729064107982,0.0986551688338245,-0.737071103385758,1089,0.0153059964693937,-0.110243111237596,-0.0887039833621476,-0.287201581918515,-0.456118242534073,0.028739261888875,-0.308762294438315
"35",0.109689221830459,-0.0356368367165309,-0.490189733762742,0.310080307294697,0.595708926851291,0.859106728412494,-0.154298117275832,1125,0.0378154469289468,-0.0161575442011687,-0.155815473072811,-0.125178533101211,-0.231658473579627,0.250266595761743,-0.0646361531455455
"36",1.51346605280763,0.880882062288415,-0.317446783618895,-0.585234512956531,-1.69246681308108,0.0262312107787135,0.761488003754053,1129,0.521768631809338,0.399387043543051,-0.10090607240045,0.236257498875851,0.658164181918353,0.00764142056764958,0.318990640314522
"37",0.0117513033901911,0.586904302230225,0.392718678083584,-1.98995259300587,-0.40407957212817,1.54713432993605,1.20897440380275,1027,0.00405127123961715,0.266099156908113,0.124832574808146,0.803338169736415,0.157137911930752,0.450696088313385,0.506444641664327
"38",-0.1188325878635,0.258340923341659,-0.125510172347955,-0.122140640412791,0.554480535140798,0.569410896192049,-0.0918581544783394,1031,-0.0409676296794891,0.11713034243377,-0.0398956272089375,0.0493078271635769,-0.215625632940024,0.165875230476841,-0.0384797808641772
"39",0.0443972762036138,0.413976208078348,0.00884545554170325,-0.569798050538408,0.0185114429043851,0.714258812302272,0.189121678110376,1103,0.0153059964693937,0.18769451771109,0.00281168442512121,0.230025843152109,-0.00719870462518145,0.208070913119292,0.0792238944019799
"40",0.762608678098912,0.880882062288415,-0.451802411508553,-0.785908524392153,-1.00189125193032,1.14880256063294,1.29222768753274,1109,0.262909951524478,0.399387043543051,-0.143613384034509,0.317269023284504,0.389614101204999,0.334657961046645,0.541319804706152
"41",0.109689221830459,0.759832396382102,0.699817256117089,-0.67785328746528,-1.37294677732476,0.750470791329827,0.522134813030333,1021,0.0378154469289468,0.344503796105135,0.222449287114567,0.273647433218306,0.533909666961428,0.218619833779904,0.218724546569277
"42",0.174981167457305,0.223755304511284,-0.490189733762742,-0.353687576684661,-0.414386670055793,0.0624431898062687,0.334814924637857,1033,0.0603248973884999,0.101449414594365,-0.155815473072811,0.142782663019714,0.161146122090652,0.0181903412282622,0.140255429725172
"43",1.6114039712479,-0.519835500341786,-0.221478477983425,-1.44967640837151,-1.20803321048279,-1.42224795032351,1.42751427359397,1037,0.555532807498668,-0.235690533952832,-0.0704008498046938,0.585230219405429,0.469778304403015,-0.414315405856861,0.597991944649116
"44",1.3175902159271,0.673368349306163,0.219975727939738,-0.0295218659040451,-0.0124098508784849,0.243503084944047,0.386848226969101,1045,0.454240280430679,0.305301476506624,0.0699231741357852,0.0119178928211228,0.004825925854521,0.070934944531326,0.162052406626313
"45",1.74198786250159,1.65905848597186,-0.0871228500937668,-0.785908524392153,-1.98106555505454,1.14880256063294,1.41710761312772,1065,0.600551708417774,0.752207919929653,-0.027693538170635,0.317269023284504,0.770394066395576,0.334657961046645,0.593632549268888
"46",0.403502977151263,0.396683398663161,0.104813761177174,-0.47717927602966,-0.15670922186521,0.0624431898062687,0.563761454895329,1055,0.139107973996936,0.179854053791388,0.0333169070208775,0.192635908809654,0.060940868093132,0.0181903412282622,0.236162128090189
"47",-0.380000370370881,-0.122100883792469,-0.451802411508553,0.232897995204074,0.6884728081999,-0.335888579496844,-0.580971196392028,1001,-0.131005431517701,-0.0553598637996801,-0.143613384034509,-0.0940202544824991,-0.267732365018734,-0.097847786038478,-0.243371363734895
"48",0.925838542166026,0.898174871703603,-0.336640444745989,-0.832217911646527,-0.208244711503327,0.89531870744005,0.62620141769282,1123,0.31918357767336,0.407227507462754,-0.107007116919601,0.335963990455731,0.0809819188926361,0.260815516422356,0.262318500371557
"49",0.827900623725758,0.898174871703603,0.527074305973243,-1.11007423517277,-0.579300236897766,0.352139022026714,0.844741287484043,1061,0.285419401984031,0.407227507462754,0.167539886442205,0.448133793483095,0.225277484649065,0.102581706513164,0.353865803356346
"50",3.53751636723984,1.98762186486043,0.719010917244183,-1.09463777275465,-2.91901146646826,-0.154828684359065,2.04150724110264,1131,1.21956159605548,0.901176734403996,0.228550331633718,0.441902137759353,1.13514119094655,-0.0451031827354142,0.855196272082571
"51",2.10109356344924,1.00193172819473,-0.0871228500937668,-0.461742813611534,-1.92953006541642,0.315927042999159,1.76052740851393,1091,0.724353685945316,0.454270290980967,-0.027693538170635,0.186404253085911,0.750353015596072,0.0920327858525517,0.737492596816414
"52",1.08906840623314,0.656075539890975,0.507880644846149,-0.508052200865908,-0.713292509956869,1.11259058160538,0.855147947950292,1113,0.375457203822243,0.297461012586922,0.161438841923054,0.205099220257139,0.277384216727776,0.324109040386032,0.358225198736574
"53",-0.347354397557458,0.206462495096096,-0.413415089254365,-1.03289192308215,-0.24947310321382,-0.661796390744844,0.667828059557816,1019,-0.119750706287925,0.0936089506746629,-0.131411294996206,0.416975514864382,0.0970147595322394,-0.192788071983993,0.27975608189247
"54",1.41552813436737,0.275633732756847,0.124007422304268,-0.646980362629031,-0.538071845187273,-0.372100558524399,0.907181250281535,1039,0.488004456120009,0.124970806353472,0.0394179515400289,0.261184121770821,0.209244644009462,-0.108396706699091,0.380022175637715
"55",0.0117513033901911,0.32751216100241,-0.0871228500937668,-1.0637648479184,-1.32141128768664,0.569410896192049,0.969621213079027,1041,0.00405127123961715,0.148492198112579,-0.027693538170635,0.429438826311868,0.513868616161924,0.165875230476841,0.406178547919083
"56",2.39490731877005,2.4372349096553,0.18158840568555,-0.755035599555904,-1.2595687001209,2.05410203632183,2.13516718529888,1047,0.825646213013305,1.10502879631625,0.0577210850974826,0.304805711837019,0.489819355202519,0.598380977561963,0.894430830504623
"57",0.0770432490170365,-0.0529296461317186,-0.163897494602143,-0.044958328322168,-0.46592215969391,-0.227252642414176,0.241154980441619,1077,0.0265607216991703,-0.023998008120871,-0.05209771624724,0.0181495485448646,0.181187172890157,-0.0662010240566397,0.10102087130312
"58",1.57875799843448,2.26430681550343,0.219975727939738,-1.57316810771651,-2.35212108044898,3.1404614071485,1.87500067364266,1085,0.544278082268891,1.02662415711923,0.0699231741357852,0.635083465195369,0.914689632152005,0.914848597380346,0.785445945998922
"59",2.65607510127743,1.52071601065036,-0.202284816856331,-0.70872621230153,-1.82645908614019,1.07637860257783,1.61483416198645,1087,0.915684014851517,0.689484208572035,-0.0642998052855426,0.286110744665791,0.710270913997064,0.313560119725419,0.676461061493221
"60",0.24027311308415,-0.0702224555469065,0.00884545554170325,-0.38456050152091,0.265881793167345,-0.118616705331509,-0.185518098674578,1083,0.0828343478480529,-0.0318384720405734,0.00281168442512121,0.155245974467199,-0.103395748462801,-0.0345542620748015,-0.0777143392862296
"61",-0.673814125691685,-1.14237663928854,-0.72051366728787,0.912102341601557,1.50273354448214,-0.879068264910179,-1.54879061975316,1117,-0.23229795858569,-0.517947235062114,-0.229028007302626,-0.368213106327167,-0.584380967650899,-0.256081595947669,-0.648795134096103
"62",-0.184124533490345,-0.225857740283595,-0.6245453616524,-0.307378189430287,0.245267597312098,-0.516948474634622,-0.476904591729541,1115,-0.0634770801390422,-0.102402647317894,-0.19852278470687,0.124087695848486,-0.0953793281429994,-0.150592389341542,-0.199777409932615
"63",0.991130487792871,0.448561826908723,0.104813761177174,-1.38793055869901,-1.41417516903525,-0.299676600469288,1.33385432939773,1133,0.341693028132914,0.203375445550494,0.0333169070208775,0.560303596510459,0.549942507601031,-0.0872988653778653,0.558757386227064
"64",-0.282062451930613,-0.589006738002536,-0.0679291889666725,0.61880955565719,0.472023751719811,-1.06012816004796,-0.435277949864546,1003,-0.0972412558283718,-0.267052389631641,-0.0215924936514837,-0.249811647576061,-0.183559951660817,-0.308826199250733,-0.182339828411703
"65",-0.184124533490345,0.119998448020158,0.431106000337773,-0.631543900210906,-0.486536355549156,-0.516948474634622,0.449288189766592,1043,-0.0634770801390422,0.0544066310761517,0.137034663846449,0.254952466047079,0.189203593209958,-0.150592389341542,0.18820877890768
"66",0.305565058710995,-0.243150549698783,-0.662932683906588,0.0322239837684552,0.853386375041874,0.496986938136937,-0.580971196392028,1051,0.105343798307606,-0.110243111237596,-0.210724873745173,-0.0130087300738477,-0.331863727577148,0.144777389155615,-0.243371363734895
"67",0.403502977151263,0.483147445739099,-0.0295418667124846,-0.137577102830918,-0.239166005286198,0.931530686467605,0.39725488743535,1069,0.139107973996936,0.219056373389899,-0.00939040461318123,0.0555394828873201,0.093006549372339,0.271364437082968,0.166411802006541
"68",-1.45731747321383,-1.50552563700748,1.85143692374273,1.93090886119778,2.03870263671855,-2.0016396147644,-2.21481688959307,2068,-0.502411364100327,-0.682596977375861,0.588511958263642,-0.779502384094169,-0.792807895965741,-0.583098136426664,-0.927796438430697
"69",0.37085700433784,-1.0559125922126,1.04530315640478,1.4986879134903,1.09044962737721,-1.60330784546129,-1.65285722441564,2261,0.127853248767159,-0.478744915463602,0.332268088459289,-0.605016023829381,-0.424052561254866,-0.467060009159924,-0.692389087898383
"70",0.72996270528549,-0.727349213324037,1.35240173443829,0.98928465369218,0.606016024778914,0.134867147861381,-1.08049089877196,2122,0.251655226294701,-0.329776100989259,0.429884800765709,-0.399371384945879,-0.235666683739528,0.0392881825494879,-0.452622341985841
"71",0.0443972762036138,-1.41906158993154,1.71708129585307,0.881229416765309,-0.0124098508784849,1.32986245577072,-1.45513067555692,2282,0.0153059964693937,-0.64339465777735,0.545804646629583,-0.355749794879683,0.004825925854521,0.387402564349708,-0.60956057567405
"72",-0.510584261624572,-1.31530473344042,0.0856201000500795,1.51412437590842,1.84286777609371,-0.661796390744844,-2.56864334544553,2110,-0.176024332436808,-0.596351874259136,0.0272158625017263,-0.611247679553123,-0.716651902927626,-0.192788071983993,-1.07601588135845
"73",2.23167745470293,0.535025873984662,4.05870795335855,0.232897995204074,-0.991584154002699,3.68364109256184,0.0746484129816398,2164,0.769372586864422,0.242577765149006,1.29013207796604,-0.0940202544824991,0.385605891045098,1.07308240728954,0.0312705452194714
"74",2.00315564500897,-0.295028977944346,1.25643342880282,0.819483567092811,0.513252143430305,0.134867147861381,-0.903577670845737,2240,0.690589510255986,-0.133764502996703,0.399379578169953,-0.330823171984713,-0.199592792300421,0.0392881825494879,-0.378512620521964
"75",4.35366568757541,1.58988724831111,4.05870795335855,-0.230195877339666,-2.70256240998817,2.74212963784539,1.00084119447777,2290,1.5009297267999,0.720846064250844,1.29013207796604,0.0929294172297749,1.05096877758863,0.798810470113606,0.419256734059767
"76",-0.184124533490345,-1.10779102045817,0.392718678083584,1.11277635303718,1.80163938438322,0.569410896192049,-2.07953030353184,2020,-0.0634770801390422,-0.502266307222709,0.124832574808146,-0.44922463073582,-0.700619062288023,0.165875230476841,-0.871124298487733
"77",-1.29408760914672,0.465854636323911,7.1105000725665,-0.0603947907402944,-0.177323417720457,1.98167807826672,-0.945204312710732,2013,-0.446137737951445,0.211215909470197,2.26019815651109,0.0243812042686077,0.0689572884129336,0.577283136240738,-0.395950202042876
"78",-1.45731747321383,-1.29801192402523,1.92821156825111,0.325516769712822,0.430795360009318,0.243503084944048,-2.3917301175193,2016,-0.502411364100327,-0.588511410339434,0.612916136340247,-0.131410188824954,-0.167527111021214,0.0709349445313261,-1.00190615989457
"79",0.142335194643882,-1.1942550675341,1.71708129585307,0.98928465369218,1.1729064107982,1.18501453966049,-1.76733048954438,2060,0.0490701721587234,-0.54146862682122,0.545804646629583,-0.399371384945879,-0.456118242534073,0.345206881707257,-0.740342437080891
"80",-0.347354397557458,-0.796520450984788,2.08176085726786,0.356389694549071,1.28628448800205,1.87304214118405,-1.35106407089443,2150,-0.119750706287925,-0.361137956668068,0.661724492493457,-0.143873500272439,-0.500208554292982,0.5456363742589,-0.56596662187177
"81",4.4842495788291,1.79740096129336,3.90515866434179,-0.84765437406465,-0.321622788707184,4.11818484089251,-0.809917726649499,2188,1.545948627719,0.814931631287271,1.24132372181283,0.342195646179473,0.125072230651546,1.19966945521689,-0.339278062099912
"82",4.22308179632172,2.10867153076674,2.35047211304718,-0.924836686155273,0.0700469325425016,3.24909734423117,-0.258364721938319,2050,1.45591082588079,0.956059981841912,0.747139115761574,0.373353924798185,-0.0272397554246855,0.946495359362184,-0.108230106947826
"83",1.02377646060629,-0.243150549698783,2.13934184064914,0.340953232130947,-0.208244711503327,2.63349370076272,-1.67367054534814,2185,0.35294775336269,-0.110243111237596,0.680027626050911,-0.137641844548696,0.0809819188926361,0.767163708131768,-0.701107878658839
"84",-0.445292315997726,-1.07320540162779,1.294820751057,1.1282128154553,1.08014252944959,0.533198917164492,-1.68407720581439,2220,-0.153514881977254,-0.486585379383305,0.411581667208255,-0.455456286459562,-0.420044351094966,0.155326309816228,-0.705467274039067
"85",0.534086868404954,-1.22884068636448,-0.183091155729237,1.29801390205467,1.24505609629156,-0.00998076824884217,-1.85058377327437,2090,0.184126874916042,-0.557149554660625,-0.0581987607663913,-0.524004499420728,-0.484175713653378,-0.00290750009296318,-0.775217600122716
"86",0.207627140270727,-0.623592356832911,0.56546162822743,0.881229416765309,1.22444190043631,0.569410896192049,-1.14293086156946,2130,0.0715796226182765,-0.282733317471046,0.179741975480508,-0.355749794879683,-0.476159293333577,0.165875230476841,-0.478778714267209
"87",1.12171437904656,-0.831106069815163,0.9877221730235,0.912102341601557,1.5748832299755,-0.191040663386621,-1.48635065695566,2170,0.38671192905202,-0.376818884507473,0.313964954901835,-0.368213106327167,-0.612438438770204,-0.055652103396027,-0.622638761814734
"88",3.3416405303593,1.58988724831111,2.86870096347872,-0.199322952503414,-0.239166005286198,4.80621244241606,-0.414464628932049,2180,1.15203324467682,0.720846064250844,0.911867317778658,0.0804661057822892,0.093006549372339,1.40009894776853,-0.173621037651247
"89",1.64404994406132,0.517733064569474,2.44644041868265,0.0322239837684552,0.234960499384475,3.24909734423117,-0.653817819655769,2070,0.566787532728444,0.234737301229304,0.777644338357331,-0.0130087300738477,-0.0913711179830986,0.946495359362184,-0.273887131396491
"90",-1.19614969070645,-0.969448545136665,1.58272566796341,1.60674315041717,0.750315395765641,-1.27740003421329,-0.913984331311986,2100,-0.412373562262115,-0.439542595865091,0.503097334995524,-0.648637613895578,-0.29178162597814,-0.37211972321441,-0.382872015902192
"91",2.3296153731432,-0.0183440273013433,3.21418686376641,0.587936630820941,-0.208244711503327,0.678046833274716,-0.24795806147207,2198,0.803136762553752,-0.00831708028146647,1.02168611912338,-0.237348336128576,0.0809819188926361,0.197521992458679,-0.103870711567598
"92",0.207627140270727,-0.554421119172161,0.757398239498371,0.433572006639694,0.461716653792189,0.822894749384938,-0.56015787545953,2275,0.0715796226182765,-0.251371461792237,0.24075242067202,-0.175031778891151,-0.179551741500917,0.23971767510113,-0.234652572974439
"93",1.74198786250159,-0.277736168529158,2.81111998009743,0.634246018075315,0.224653401456851,-0.408312537551955,-0.79951106618325,2105,0.600551708417774,-0.125924039077,0.893564184221205,-0.256043303299803,-0.0873629078231978,-0.118945627359704,-0.334918666719684
"94",0.501440895591531,-1.40176878051636,1.98579255163239,0.958411728855933,1.47181225069927,-0.553160453662177,-2.42295009891805,2230,0.172872149686265,-0.635554193857648,0.631219269897701,-0.386908073498395,-0.572356337171197,-0.161141310002154,-1.01498434603526
"95",-0.510584261624572,-0.848398879230351,0.296750372448114,0.510754318730318,0.616323122706538,0.352139022026714,-0.913984331311986,2195,-0.176024332436808,-0.384659348427175,0.0943273522123901,-0.206190057509863,-0.239674893899429,0.102581706513164,-0.382872015902192
"96",7.32444921359687,4.28756551708038,2.38885943530136,-1.23356593451777,-1.18741901462754,5.71151191810496,1.1569411014715,2158,2.52510972270956,1.9439584357244,0.759341204799877,0.497987039273034,0.461761884083214,1.66382196428385,0.484647664763188
"97",0.664670759658645,0.206462495096096,-0.0295418667124846,0.310080307294697,1.10075672530483,0.352139022026714,-0.00860487074834919,4019,0.229145775835148,0.0936089506746629,-0.00939040461318123,-0.125178533101211,-0.428060771414767,0.102581706513164,-0.00360461782235265
"98",-0.1188325878635,-0.0356368367165309,0.219975727939738,0.140279220695326,1.21413480250869,0.460774959109381,-0.79951106618325,4013,-0.0409676296794891,-0.0161575442011687,0.0699231741357852,-0.0566303201400443,-0.472151083173676,0.134228468495002,-0.334918666719684
"99",1.74198786250159,0.604197111645412,0.239169389066832,-0.183886490085292,-0.857591880943596,-0.0461927472763979,0.594981436294074,4007,0.600551708417774,0.273939620827815,0.0760242186549363,0.0742344500585475,0.333499158966388,-0.0134564207535759,0.249240314230873
"100",0.305565058710995,-0.381493025020284,0.0280391166687976,0.61880955565719,0.853386375041874,-1.06012816004796,-0.102264814944588,4025,0.105343798307606,-0.172966822595214,0.00891272894427255,-0.249811647576061,-0.331863727577148,-0.308826199250733,-0.0428391762444053
"101",1.48082007999421,0.91546768111879,0.757398239498371,-2.25237245411399,0.327724380733085,0.678046833274716,0.418068208367846,4027,0.510513906579562,0.415067971382456,0.24075242067202,0.909276317040037,-0.127445009422206,0.197521992458679,0.175130592766997
"102",0.403502977151263,-0.346907406189909,-0.682126345033682,0.541627243566567,0.595708926851291,0.569410896192049,-1.03886425690697,4011,0.139107973996936,-0.15728589475581,-0.216825918264324,-0.218653368957348,-0.231658473579627,0.165875230476841,-0.435184760464929
"103",3.24370261191904,2.09137872135155,0.757398239498371,-0.554361588120283,-1.07404093742369,1.14880256063294,0.969621213079027,4017,1.1182690689875,0.948219517922209,0.24075242067202,0.223794187428367,0.417671572324305,0.334657961046645,0.406178547919083
"104",0.468794922778109,-0.087515264962094,-0.163897494602143,-0.153013565249042,0.760622493693264,0.171079126888935,-0.435277949864546,4021,0.161617424456489,-0.0396789359602756,-0.05209771624724,0.0617711386110625,-0.29578983613804,0.0498371032101003,-0.182339828411702
"105",1.90521772656871,0.777125205797289,-0.451802411508553,-0.0603947907402944,-0.0124098508784849,0.714258812302271,0.157901696711629,4009,0.656825334566657,0.352344260024838,-0.143613384034509,0.0243812042686077,0.004825925854521,0.208070913119292,0.0661457082612955
"106",0.762608678098912,1.22673825059217,0.27755671132102,-1.66578688222526,-0.177323417720457,1.65577026701872,0.927994571214033,4023,0.262909951524478,0.556196321937096,0.0882263076932388,0.672473399537823,0.0689572884129336,0.482342850295223,0.388740966398171
"107",0.403502977151263,0.465854636323911,-0.413415089254365,0.140279220695326,0.647244416489407,0.0262312107787135,0.168308357177879,4003,0.139107973996936,0.211215909470197,-0.131411294996206,-0.0566303201400443,-0.251699524379131,0.00764142056764958,0.0705051036415241
"108",1.02377646060629,0.0162415915290319,0.219975727939738,-1.38793055869901,-1.2595687001209,-1.06012816004796,1.219381064269,4012,0.35294775336269,0.00736384755793796,0.0699231741357852,0.560303596510459,0.489819355202519,-0.308826199250733,0.510804037044556
"109",1.21965229748683,0.119998448020158,0.219975727939738,-0.230195877339666,0.616323122706538,-0.299676600469288,0.55335479442908,4015,0.420476104741349,0.0544066310761517,0.0699231741357852,0.0929294172297749,-0.239674893899429,-0.0872988653778653,0.231802732709961
"110",2.52549121002374,3.0078976203565,2.25450380741171,-1.17182008484527,-3.22822440429696,1.29365047674316,1.6252408224527,4001,0.870665113932411,1.36376410566643,0.716633893165818,0.473060416378065,1.25538749574357,0.376853643689096,0.680820456873449
"111",0.632024786845222,0.292926542172035,0.488686983719054,0.541627243566567,0.554480535140798,0.171079126888936,-0.206331419607075,4005,0.217891050605372,0.132811270273174,0.155337797403903,-0.218653368957348,-0.215625632940024,0.0498371032101006,-0.0864331300466857
"112",0.632024786845222,0.707953968136538,0.18158840568555,-0.353687576684661,-1.02250544778557,0.931530686467605,0.740674682821556,5139,0.217891050605372,0.320982404346029,0.0577210850974826,0.142782663019714,0.397630521524801,0.271364437082968,0.310271849554066
"113",1.21965229748683,1.20944544117698,-0.0103482055853905,-1.40336702111714,-1.97075845712691,0.931530686467605,2.0102872597039,5147,0.420476104741349,0.548355858017394,-0.00328936009402997,0.566535252234202,0.766385856235675,0.271364437082968,0.842118085941886
"114",-0.151478560676922,0.137291257435346,-0.202284816856331,0.649682480493439,0.317417282805461,1.04016662355027,-0.0190115312145985,5119,-0.0522223549092655,0.0622470949958539,-0.0642998052855426,-0.262274959023546,-0.123436799262305,0.303011199064806,-0.00796401320258094
"115",-0.0535406422366543,0.0854128291897826,-0.183091155729237,-0.24563233975779,-0.0639453405166015,0.171079126888936,0.366034906036603,5145,-0.018458179219936,0.038725703236747,-0.0581987607663913,0.0991610729535173,0.0248669766540251,0.0498371032101006,0.153333615865856
"116",0.566732841218377,0.344804970417598,-0.317446783618895,-0.90940022373715,-1.42448226696288,0.496986938136937,1.1569411014715,5079,0.195381600145818,0.156332662032281,-0.10090607240045,0.367122269074443,0.553950717760932,0.144777389155615,0.484647664763187
"117",0.566732841218377,0.448561826908723,-0.470996072635648,-0.369124039102787,-0.393772474200548,0.243503084944047,1.00084119447777,5083,0.195381600145818,0.203375445550494,-0.14971442855366,0.149014318743457,0.153129701770851,0.070934944531326,0.419256734059767
"118",0.632024786845222,1.93574343661486,-0.298253122491801,-0.153013565249042,-1.71308100893633,1.58334630896361,1.70849410618268,5103,0.217891050605372,0.877655342644889,-0.0948050278812988,0.0617711386110625,0.666180602238155,0.461245008973998,0.715695619915273
"119",-0.412646343184304,-0.139393693207657,-0.0679291889666725,0.773174179838437,0.472023751719811,0.134867147861381,-0.154298117275832,5045,-0.142260156747478,-0.0632003277193822,-0.0215924936514837,-0.312128204813485,-0.183559951660817,0.0392881825494879,-0.0646361531455455
"120",-0.216770506303768,0.84629644345804,0.124007422304268,-0.755035599555904,-0.940048664364582,1.76440620410139,1.39629429219522,5061,-0.0747318053688187,0.383706115703647,0.0394179515400289,0.304805711837019,0.365564840245594,0.513989612277062,0.584913758508432
"121",0.860546596539181,0.241048113926472,0.37352501695649,0.310080307294697,0.276188891094968,0.279715063971603,0.615794757226572,5051,0.296674127213807,0.109289878514067,0.118731530288995,-0.125178533101211,-0.107403958622702,0.0814838651919388,0.25795910499133
"122",1.70934188968817,1.55530162948073,-0.0871228500937668,-0.600670975374657,-0.940048664364582,2.34379786854228,1.1569411014715,5093,0.589296983187997,0.70516513641144,-0.027693538170635,0.242489154599594,0.365564840245594,0.682772342846865,0.484647664763188
"123",-0.673814125691685,-1.07320540162779,-0.682126345033682,0.603373093239064,0.770929591620887,-0.0461927472763979,-1.08049089877196,5125,-0.23229795858569,-0.486585379383305,-0.216825918264324,-0.243579991852318,-0.299798046297941,-0.0134564207535759,-0.452622341985841
"124",0.632024786845222,0.656075539890975,0.335137694702302,-0.214759414921541,-1.20803321048279,-0.00998076824884217,1.46914091545896,5141,0.217891050605372,0.297461012586922,0.106529441250693,0.0866977615060324,0.469778304403015,-0.00290750009296318,0.615429526170029
"125",-0.216770506303768,0.638782730475788,-0.163897494602143,-0.307378189430287,-1.71308100893633,0.315927042999159,1.11531445960651,5013,-0.0747318053688187,0.289620548667219,-0.05209771624724,0.124087695848486,0.666180602238155,0.0920327858525517,0.467210083242275
"126",-0.60852218006484,0.500440255154286,-0.394221428127271,0.310080307294697,-0.867898978871219,0.496986938136937,1.09450113867401,5019,-0.209788508126137,0.226896837309601,-0.125310250477055,-0.125178533101211,0.337507369126288,0.144777389155615,0.458491292481819
"127",0.991130487792871,1.00193172819473,0.431106000337773,-0.739599137137777,-1.48632485452862,1.11259058160538,1.22978772473524,5011,0.341693028132914,0.454270290980967,0.137034663846449,0.298574056113275,0.577999978720337,0.324109040386032,0.515163432424784
"128",-0.086186615050077,-0.156686502622845,-0.432608750381459,-0.153013565249042,0.430795360009318,-0.299676600469287,0.407661547901598,5009,-0.0297129044497125,-0.0710407916390846,-0.137512339515358,0.0617711386110625,-0.167527111021214,-0.0872988653778651,0.170771197386769
"129",1.05642243341972,0.119998448020158,-0.566964378271118,-0.508052200865908,-1.26987579804853,-1.53088388740618,1.01124785494402,5065,0.364202478592467,0.0544066310761517,-0.180219651149416,0.205099220257139,0.49382756536242,-0.445962167838699,0.423616129439995
"130",0.599378814031799,0.258340923341659,-0.279059461364707,-0.338251114266538,-1.05342674156844,-0.480736495607066,1.00084119447777,5075,0.206636325375595,0.11713034243377,-0.0887039833621476,0.136551007295972,0.409655152004503,-0.140043468680929,0.419256734059767
"131",0.893192569352603,1.26132386942254,-0.0295418667124846,-1.31074824660839,-2.33150688459373,1.04016662355027,1.6252408224527,5095,0.307928852443584,0.571877249776501,-0.00939040461318123,0.529145317891747,0.906673211832204,0.303011199064806,0.680820456873449
"132",1.18700632467341,1.72822972363261,0.200782066812644,-1.15638362242714,-2.2284359053175,0.931530686467605,1.64605414338519,5123,0.409221379511573,0.783569775608462,0.0638221296166338,0.466828760654322,0.866591110233196,0.271364437082968,0.689539247633906
"133",0.174981167457305,0.690661158721351,-0.202284816856331,-0.261068802175915,-0.981277056075076,-0.480736495607066,1.24019438520149,5049,0.0603248973884999,0.313141940426326,-0.0642998052855426,0.10539272867726,0.381597680885197,-0.140043468680929,0.519522827805012
"134",0.207627140270727,-0.0183440273013433,-0.413415089254365,0.0630969086047028,0.214346303529228,0.279715063971603,0.105868394380385,5055,0.0715796226182765,-0.00831708028146647,-0.131411294996206,-0.025472041521332,-0.083354697663297,0.0814838651919388,0.0443487313601553
"135",0.142335194643882,0.32751216100241,-0.52857705601693,-0.893963761319024,-0.795749293377856,0.279715063971603,0.886367929349037,5037,0.0490701721587234,0.148492198112579,-0.168017562111114,0.3608906133507,0.309449898006983,0.0814838651919388,0.371303384877258
"136",0.0117513033901911,-0.467957072096222,-0.0871228500937668,-0.47717927602966,-1.73369520479158,0.0262312107787135,1.27141436660024,5039,0.00405127123961715,-0.212169142193725,-0.027693538170635,0.192635908809654,0.674197022557957,0.00764142056764958,0.532601013945696
"137",0.860546596539181,1.41695915415923,-0.490189733762742,-0.461742813611534,-0.682371216173999,0.352139022026714,1.22978772473524,5043,0.296674127213807,0.642441425053822,-0.155815473072811,0.186404253085911,0.265359586248074,0.102581706513164,0.515163432424783
"138",-0.282062451930613,-0.156686502622845,0.0472327777958916,-0.276505264594038,-0.228858907358573,-0.661796390744844,0.490914831631587,5023,-0.0972412558283718,-0.0710407916390846,0.0150137734634238,0.111624384401002,0.0889983392124377,-0.192788071983993,0.205646360428593
"139",1.38288216155394,0.55231868339985,-0.509383394889836,-1.26443885935402,-1.72338810686395,-0.118616705331509,1.13612778053901,5127,0.476749730890232,0.250418229068708,-0.161916517591963,0.510450350720519,0.670188812398056,-0.0345542620748013,0.475928874002731
"140",-0.1188325878635,0.379390589247973,0.0472327777958916,-0.168450027667167,-0.692678314101623,0.279715063971603,0.699048040956561,5063,-0.0409676296794891,0.172013589871686,0.0150137734634238,0.068002794334805,0.269367796407974,0.0814838651919388,0.292834268033154
"141",0.632024786845222,1.52071601065036,0.18158840568555,-0.84765437406465,-2.02229394676503,0.424562980081826,1.69808744571644,5073,0.217891050605372,0.689484208572035,0.0577210850974826,0.342195646179473,0.786426907035179,0.12367954783439,0.711336224535046
"142",0.0443972762036138,-0.122100883792469,-0.566964378271118,-0.430869888775284,-0.816363489233103,-1.3498239922684,0.0434284315828943,5105,0.0153059964693937,-0.0553598637996801,-0.180219651149416,0.173940941638426,0.317466318326784,-0.393217564535635,0.0181923590787876
"143",3.0478267750385,2.40264929082493,0.37352501695649,-1.60404103255276,-1.44509646281812,2.23516193145961,2.50980696208383,5107,1.05074071760884,1.08934786847685,0.118731530288995,0.647546776642854,0.561967138080734,0.651125580865027,1.05136906419283
"144",1.02377646060629,1.71093691421742,-0.259865800237613,-0.214759414921541,-1.17711191669992,0.967742665495161,1.13612778053901,5027,0.35294775336269,0.77572931168876,-0.0826029388429963,0.0866977615060324,0.457753673923313,0.281913357743581,0.475928874002731
"145",-0.934981908199066,0.431269017493536,-0.221478477983425,-0.569798050538408,-0.795749293377856,1.00395464452272,1.22978772473524,5121,-0.322335760423903,0.195534981630792,-0.0704008498046938,0.230025843152109,0.309449898006983,0.292462278404194,0.515163432424784
"146",0.632024786845222,0.465854636323911,-0.221478477983425,-1.44967640837151,-2.02229394676503,-1.20497607615818,1.5419875387227,5137,0.217891050605372,0.211215909470197,-0.0704008498046938,0.585230219405429,0.786426907035179,-0.351021881893184,0.645945293831624
"147",-0.477938288811149,-0.0183440273013433,0.27755671132102,-0.307378189430287,0.554480535140798,0.0262312107787135,0.0434284315828943,5143,-0.164769607207031,-0.00831708028146647,0.0882263076932388,0.124087695848486,-0.215625632940024,0.00764142056764958,0.0181923590787876
"148",1.21965229748683,2.38535648140974,0.0664264389229857,-0.924836686155273,-1.40386807110763,1.43849839285338,1.80215405037892,5017,0.420476104741349,1.08150740455715,0.0211148179825751,0.373353924798185,0.545934297441131,0.419049326331547,0.754930178337325
"149",-0.0535406422366543,-0.104808074377282,-0.0295418667124846,-0.0912677155765437,-0.785442195450233,-0.191040663386621,0.699048040956561,5059,-0.018458179219936,-0.0475193998799778,-0.00939040461318123,0.0368445157160927,0.305441687847082,-0.055652103396027,0.292834268033154
"150",-0.543230234437994,0.725246777551726,-0.0295418667124846,-1.03289192308215,-1.07404093742369,-0.408312537551954,1.25060104566774,5071,-0.187279057666584,0.328822868265731,-0.00939040461318123,0.416975514864382,0.417671572324305,-0.118945627359703,0.52388222318524
"151",0.697316732472067,1.62447286714148,0.56546162822743,-0.153013565249042,-1.06373383949606,0.38835100105427,1.54198753872271,5113,0.240400501064925,0.736526992090248,0.179741975480508,0.0617711386110625,0.413663362164404,0.113130627173777,0.645945293831625
"152",0.24027311308415,0.310219351587222,-0.432608750381459,-0.153013565249042,-1.63062422551534,0.786682770357382,0.917587910747783,5029,0.0828343478480529,0.140651734192877,-0.137512339515358,0.0617711386110625,0.634114920958949,0.229168754440517,0.384381571017942
"153",-0.771752044131953,-0.139393693207657,-0.413415089254365,-0.785908524392153,-1.5687816379496,-1.06012816004796,1.09450113867401,5101,-0.26606213427502,-0.0632003277193822,-0.131411294996206,0.317269023284504,0.610065659999544,-0.308826199250733,0.458491292481819
"154",-0.510584261624572,-0.48524988151141,-0.432608750381459,0.356389694549071,0.472023751719811,0.569410896192049,-0.747477763852006,5085,-0.176024332436808,-0.220009606113428,-0.137512339515358,-0.143873500272439,-0.183559951660817,0.165875230476841,-0.313121689818543
"155",-0.412646343184304,-0.277736168529158,0.392718678083584,-0.075831253158419,-0.744213803739739,-0.987704201992846,0.594981436294074,5015,-0.142260156747478,-0.125924039077,0.124832574808146,0.0306128599923502,0.289408847207479,-0.287728357929508,0.249240314230873
"156",-0.412646343184304,0.154584066850533,0.162394744558456,-0.446306351193411,-1.23895450426566,0.243503084944047,1.12572112007276,5109,-0.142260156747478,0.0700875589155561,0.0516200405783313,0.180172597362169,0.481802934882718,0.070934944531326,0.471569478622504
"157",1.18700632467341,1.22673825059217,-0.413415089254365,-0.137577102830918,-1.66154551929821,1.04016662355027,1.04246783634277,5069,0.409221379511573,0.556196321937096,-0.131411294996206,0.0555394828873201,0.646139551438651,0.303011199064807,0.436694315580679
"158",-0.184124533490345,-0.519835500341786,-0.682126345033682,0.171152145531575,-0.12578792808234,-1.09634013907551,0.615794757226572,5005,-0.0634770801390422,-0.235690533952832,-0.216825918264324,-0.0690936315875292,0.0489162376134295,-0.319375119911346,0.25795910499133
"159",2.91724288378481,1.38237353532886,0.0280391166687976,-2.49935585280399,-2.5376488431462,0.714258812302272,2.36411371555635,5077,1.00572181668973,0.626760497214417,0.00891272894427255,1.00898280861992,0.98683741503022,0.208070913119292,0.99033752886964
"160",-0.60852218006484,0.413976208078348,0.27755671132102,-1.01745546066402,-1.15649772084467,-0.770432327827512,0.459694850232842,5087,-0.209788508126137,0.18769451771109,0.0882263076932388,0.410743859140641,0.449737253603511,-0.224434833965831,0.192568174287909
"161",1.15436035185998,0.84629644345804,-0.0103482055853905,-0.492615738447785,-1.08434803535131,-0.480736495607066,1.1569411014715,5003,0.397966654281796,0.383706115703647,-0.00328936009402997,0.198867564533397,0.421679782484206,-0.140043468680929,0.484647664763187
"162",-0.902335935385644,0.0681200197745949,0.0856201000500795,-0.415433426357161,-1.79553779235732,-1.6757318035164,1.12572112007276,5129,-0.311081035194126,0.0308852393170448,0.0272158625017263,0.167709285914684,0.698246283517362,-0.48815785048115,0.471569478622503
"163",0.0770432490170365,0.483147445739099,-0.701320006160776,0.171152145531575,-1.75430940064682,0.569410896192049,0.168308357177878,5025,0.0265607216991703,0.219056373389899,-0.222926962783475,-0.0690936315875292,0.682213442877758,0.165875230476841,0.0705051036415238
"164",0.207627140270727,1.15756701293142,0.124007422304268,-1.35705763386276,-1.31110418975902,0.134867147861381,1.64605414338519,5067,0.0715796226182765,0.524834466258287,0.0394179515400289,0.547840285062974,0.509860406002023,0.0392881825494879,0.689539247633905
"165",-0.314708424744035,0.777125205797289,0.392718678083584,-1.03289192308215,-0.538071845187273,0.786682770357382,1.04246783634277,5111,-0.108495981058148,0.352344260024838,0.124832574808146,0.416975514864382,0.209244644009462,0.229168754440517,0.436694315580679
"166",-0.510584261624572,1.26132386942254,0.0472327777958916,-0.0603947907402944,-2.39334947215947,-0.44452451657951,1.10490779914026,5099,-0.176024332436808,0.571877249776501,0.0150137734634238,0.0243812042686077,0.930722472791609,-0.129494548020316,0.462850687862047
"167",-0.347354397557458,0.84629644345804,-0.336640444745989,-1.18725654726339,-1.06373383949606,1.04016662355027,1.75012074804768,5021,-0.119750706287925,0.383706115703647,-0.107007116919601,0.479292072101807,0.413663362164404,0.303011199064807,0.733133201436186
"168",0.762608678098912,-0.156686502622845,-0.81648197292334,0.603373093239064,-0.12578792808234,-0.191040663386621,0.147495036245381,5053,0.262909951524478,-0.0710407916390846,-0.259533229898383,-0.243579991852318,0.0489162376134295,-0.055652103396027,0.0617863128810677
"169",0.664670759658645,1.19215263176179,-0.183091155729237,-0.739599137137777,-0.31131569077956,2.41622182659739,1.00084119447777,5035,0.229145775835148,0.540515394097692,-0.0581987607663913,0.298574056113275,0.121064020491644,0.703870184168091,0.419256734059767
"170",0.0770432490170365,0.448561826908723,-0.566964378271118,-0.8167814492284,-1.73369520479158,-0.661796390744844,0.574168115361577,5047,0.0265607216991703,0.203375445550494,-0.180219651149416,0.329732334731988,0.674197022557957,-0.192788071983993,0.240521523470417
"171",0.697316732472067,0.586904302230225,-0.52857705601693,-0.554361588120283,-1.01219834985795,0.931530686467605,0.980027873545276,5001,0.240400501064925,0.266099156908113,-0.168017562111114,0.223794187428367,0.3936223113649,0.271364437082968,0.410537943299311
"172",1.28494424311368,0.396683398663161,-0.0103482055853905,-0.168450027667167,-0.878206076798842,0.569410896192049,1.04246783634277,5081,0.442985555200902,0.179854053791388,-0.00328936009402997,0.068002794334805,0.341515579286189,0.165875230476841,0.436694315580679
"173",0.436148949964686,0.258340923341659,-0.509383394889836,0.00135105893220424,0.0185114429043851,-0.734220348799956,1.20897440380275,5089,0.150362699226712,0.11713034243377,-0.161916517591963,-0.000545418626362112,-0.00719870462518145,-0.213885913305218,0.506444641664328
"174",0.305565058710995,0.517733064569474,-0.106316511220861,-0.338251114266538,-0.218551809430951,0.38835100105427,0.719861361889059,5115,0.105343798307606,0.234737301229304,-0.0337945826897863,0.136551007295972,0.0849901290525373,0.113130627173777,0.30155305879361
"175",0.403502977151263,0.258340923341659,-0.144703833475049,-0.523488663284034,-2.17690041567938,-0.227252642414176,0.751081343287805,5117,0.139107973996936,0.11713034243377,-0.0459966717280887,0.211330875980882,0.846550059433692,-0.0662010240566396,0.314631244934294
"176",0.534086868404954,0.967346109364353,0.354331355829396,-0.168450027667167,0.0597398346148783,1.22122651868805,0.594981436294074,5091,0.184126874916042,0.438589363141562,0.112630485769844,0.068002794334805,-0.0232315452647847,0.35575580236787,0.249240314230873
"177",-0.641168152878262,0.379390589247973,0.258363050193926,-1.14094716000902,-1.37294677732476,-1.27740003421329,1.33385432939773,5097,-0.221043233355914,0.172013589871686,0.0821252631740876,0.46059710493058,0.533909666961428,-0.37211972321441,0.558757386227064
"178",-0.1188325878635,0.241048113926472,-0.0679291889666725,0.325516769712822,0.801850885403757,1.40228641382583,0.199528338576624,5031,-0.0409676296794891,0.109289878514067,-0.0215924936514837,-0.131410188824954,-0.311822676777644,0.408500405670934,0.083583289782208
"179",1.90521772656871,2.57557738497681,-0.202284816856331,-1.35705763386276,-2.45519205972521,1.00395464452272,2.21842046902887,5041,0.656825334566657,1.16775250767387,-0.0642998052855426,0.547840285062974,0.954771733751014,0.292462278404194,0.929305993546447
"180",-0.249416479117191,0.84629644345804,0.258363050193926,-0.554361588120283,-0.12578792808234,0.424562980081826,0.751081343287805,5131,-0.0859865305985953,0.383706115703647,0.0821252631740876,0.223794187428367,0.0489162376134295,0.12367954783439,0.314631244934294
"181",-0.0535406422366543,0.189169685680909,-0.0679291889666725,-0.044958328322168,-0.197937613575703,-0.299676600469288,0.293188282772863,5033,-0.018458179219936,0.0857684867549607,-0.0215924936514837,0.0181495485448646,0.0769737087327353,-0.0872988653778653,0.12281784820426
"182",0.0117513033901911,1.14027420351623,-0.163897494602143,-0.940273148573399,-0.919434468509336,1.29365047674316,0.990434534011525,5057,0.00405127123961715,0.516994002338585,-0.05209771624724,0.379585580521928,0.357548419925793,0.376853643689096,0.414897338679539
"183",0.109689221830459,1.08839577527067,-0.125510172347955,-0.523488663284034,-1.18741901462754,-0.154828684359065,1.82296737131142,5135,0.0378154469289468,0.493472610579478,-0.0398956272089375,0.211330875980882,0.461761884083214,-0.0451031827354142,0.763648969097782
"184",-1.06556579945276,-0.606299547417724,-0.163897494602143,0.202025070367825,-1.06373383949606,-0.118616705331509,-1.15333752203571,5007,-0.367354661343009,-0.274892853551343,-0.05209771624724,-0.0815569430350141,0.413663362164404,-0.0345542620748015,-0.483138109647437
"185",0.0770432490170365,0.880882062288415,1.10288413978606,-2.22149952927774,-0.43500086591104,0.134867147861381,0.407661547901598,5133,0.0265607216991703,0.399387043543051,0.350571222016743,0.896813005592552,0.169162542410454,0.0392881825494879,0.170771197386769
"186",-0.0208946694232316,0.500440255154286,-0.106316511220861,-1.12551069759089,-0.929741566436959,0.38835100105427,0.667828059557816,5149,-0.00720345399015941,0.226896837309601,-0.0337945826897863,0.454365449206837,0.361556630085693,0.113130627173777,0.27975608189247
"187",1.57875799843448,1.07110296585548,0.124007422304268,-0.230195877339666,0.0700469325425016,0.967742665495161,0.907181250281535,6033,0.544278082268891,0.485632146659776,0.0394179515400289,0.0929294172297749,-0.0272397554246855,0.281913357743581,0.380022175637715
"188",1.18700632467341,-0.312321787359534,-1.20035519546522,0.603373093239064,0.121582422180618,-1.24118805518574,-0.227144740539573,6043,0.409221379511573,-0.141604966916405,-0.381554120281408,-0.243579991852318,-0.0472808062241896,-0.361570802553797,-0.095151920807142
"189",0.37085700433784,-0.519835500341786,0.930141189642217,-0.106704177994668,-0.177323417720457,-0.770432327827512,0.7927079851528,6049,0.127853248767159,-0.235690533952832,0.295661821344382,0.0430761714398351,0.0689572884129336,-0.224434833965831,0.332068826455206
"190",1.15436035185998,0.794418015212477,-0.183091155729237,-0.631543900210906,1.03891413773909,1.11259058160538,-0.24795806147207,6115,0.397966654281796,0.36018472394454,-0.0581987607663913,0.254952466047079,-0.404011510455362,0.324109040386032,-0.103870711567598
"191",0.174981167457305,-0.813813260399976,-0.758900989542058,0.449008469057817,1.8840961678042,-0.118616705331509,-1.82977045234187,6013,0.0603248973884999,-0.368978420587771,-0.241230096340929,-0.181263434614893,-0.732684743567229,-0.0345542620748015,-0.76649880936226
"192",-0.380000370370881,-0.692763594493662,-0.662932683906588,0.371826156967194,0.595708926851291,-0.299676600469288,-0.299991363803313,6027,-0.131005431517701,-0.314095173149855,-0.210724873745173,-0.150105155996181,-0.231658473579627,-0.0872988653778653,-0.125667688468738
"193",0.37085700433784,-0.173979312038032,-0.797288311796246,-0.600670975374657,0.307110184877839,-0.516948474634622,-0.414464628932049,6035,0.127853248767159,-0.0788812555587869,-0.253432185379231,0.242489154599594,-0.119428589102405,-0.150592389341542,-0.173621037651247
"194",1.77463383531502,0.344804970417598,-0.375027767000177,-1.29531178419026,0.966764452245729,1.29365047674316,-0.508124573128287,6099,0.611806433647551,0.156332662032281,-0.119209205957904,0.522913662168004,-0.375954039336056,0.376853643689096,-0.212855596073299
"195",0.0770432490170365,-0.381493025020284,0.162394744558456,-0.893963761319024,1.27597739007443,0.134867147861381,-1.1949641639007,6083,0.0265607216991703,-0.172966822595214,0.0516200405783313,0.3608906133507,-0.496200344133081,0.0392881825494879,-0.500575691168349
"196",-0.151478560676922,-0.882984498060726,-0.52857705601693,0.232897995204074,1.56457613204788,-0.299676600469288,-1.44472401509067,6097,-0.0522223549092655,-0.40034027626658,-0.168017562111114,-0.0940202544824991,-0.608430228610304,-0.0872988653778653,-0.605201180293822
"197",1.21965229748683,0.379390589247973,-0.451802411508553,-0.338251114266538,0.0391256387596317,0.279715063971603,0.563761454895329,6103,0.420476104741349,0.172013589871686,-0.143613384034509,0.136551007295972,-0.0152151249449831,0.0814838651919388,0.236162128090189
"198",3.14576469347877,1.55530162948073,0.124007422304268,-2.74633925149398,-0.0124098508784849,1.32986245577072,0.501321492097837,6025,1.08450489329817,0.70516513641144,0.0394179515400289,1.1086893001998,0.004825925854521,0.387402564349709,0.210005755808821
"199",-0.902335935385644,-1.28071911461004,1.08369047865897,-0.230195877339666,0.214346303529228,-1.38603597129596,-1.77773715001063,6051,-0.311081035194126,-0.580670946419732,0.344470177497592,0.0929294172297749,-0.083354697663297,-0.403766485196248,-0.744701832461119
"200",0.795254650912336,-0.675470785078474,-0.298253122491801,-1.09463777275465,1.77071809060035,1.04016662355027,-1.94424371747061,6069,0.274164676754254,-0.306254709230153,-0.0948050278812988,0.441902137759353,-0.68859443180832,0.303011199064807,-0.814452158544768
"201",-0.1188325878635,-0.727349213324037,-0.81648197292334,0.202025070367825,1.62641871961362,-0.299676600469288,-1.6008239220844,6001,-0.0409676296794891,-0.329776100989259,-0.259533229898383,-0.0815569430350141,-0.632479489569708,-0.0872988653778653,-0.670592110997243
"202",0.795254650912336,0.171876876265721,-0.52857705601693,0.124842758277201,1.32751287971255,0.786682770357382,-0.778697745250753,6067,0.274164676754254,0.0779280228352584,-0.168017562111114,-0.0503986644163018,-0.516241394932585,0.229168754440517,-0.326199875959228
"203",0.566732841218377,-0.900277307475914,-0.989224923067187,1.03559404094656,1.39966256520591,-0.95149222296529,-1.34065741042818,6017,0.195381600145818,-0.408180740186282,-0.314442630570744,-0.418066352117107,-0.54429886605189,-0.277179437268895,-0.561607226491542
"204",-0.314708424744035,-1.09049821104298,-0.72051366728787,-0.230195877339666,1.64703291546887,-0.44452451657951,-1.72570384767938,6055,-0.108495981058148,-0.494425843303007,-0.229028007302626,0.0929294172297749,-0.640495909889511,-0.129494548020316,-0.722904855559979
"205",-0.1188325878635,-0.087515264962094,0.488686983719054,-2.31411830378649,0.863693472969496,0.786682770357383,-1.22618414529945,6053,-0.0409676296794891,-0.0396789359602756,0.155337797403903,0.934202939935006,-0.335871937737048,0.229168754440517,-0.513653877309033
"206",-0.314708424744035,-0.900277307475914,-1.08519322870266,0.263770920040323,1.50273354448214,-1.6757318035164,-1.41350403369192,6075,-0.108495981058148,-0.408180740186282,-0.3449478531665,-0.106483565929984,-0.584380967650899,-0.48815785048115,-0.592122994153138
"207",-0.347354397557458,-1.41906158993154,-0.336640444745989,1.03559404094656,-0.0948666342994714,-1.82057971962663,-0.0190115312145985,6091,-0.119750706287925,-0.64339465777735,-0.107007116919601,-0.418066352117107,0.0368916071337275,-0.530353533123601,-0.00796401320258094
"208",0.24027311308415,-0.364200215605097,-0.144703833475049,0.0785333710228275,1.7501038947451,-0.00998076824884217,-1.27821744763069,6073,0.0828343478480529,-0.165126358675512,-0.0459966717280887,-0.0317036972450744,-0.680578011488519,-0.00290750009296318,-0.535450854210174
"209",1.18700632467341,1.97032905544524,0.200782066812644,-2.71546632665773,-0.0330240467337315,2.23516193145961,0.293188282772862,6107,0.409221379511573,0.893336270484294,0.0638221296166338,1.09622598875231,0.0128423461743226,0.651125580865027,0.12281784820426
"210",0.272919085897573,-0.398785834435472,-0.662932683906588,-0.0140854034859204,1.39966256520591,-0.191040663386621,-0.664224480122017,6113,0.0940890730778296,-0.180807286514916,-0.210724873745173,0.00568623709738035,-0.54429886605189,-0.055652103396027,-0.278246526776719
"211",0.827900623725758,-0.19127212145322,0.219975727939738,0.665118942911564,0.977071550173354,0.38835100105427,0.397254887435348,6023,0.285419401984031,-0.0867217194784892,0.0699231741357852,-0.268506614747288,-0.379962249495957,0.113130627173777,0.16641180200654
"212",0.305565058710995,-0.796520450984788,-0.279059461364707,1.1282128154553,1.29659158592968,-0.879068264910179,-0.893171010379489,6057,0.105343798307606,-0.361137956668068,-0.0887039833621476,-0.455456286459562,-0.504216764452882,-0.256081595947669,-0.374153225141736
"213",2.68872107409085,-0.571713928587348,0.18158840568555,0.557063705984692,1.81194648231084,-1.27740003421329,-1.08049089877196,6003,0.926938740081294,-0.259211925711939,0.0577210850974826,-0.224885024681091,-0.704627272447923,-0.37211972321441,-0.452622341985841
"214",0.632024786845222,1.10568858468585,0.104813761177174,-2.25237245411399,0.234960499384475,1.14880256063294,-0.102264814944588,6039,0.217891050605372,0.501313074499181,0.0333169070208775,0.909276317040037,-0.0913711179830986,0.334657961046645,-0.0428391762444053
"215",1.3175902159271,0.379390589247973,0.00884545554170325,0.109406295859078,0.399874066226448,0.38835100105427,0.282781622306614,6045,0.454240280430679,0.172013589871686,0.00281168442512121,-0.0441670086925601,-0.155502480541512,0.113130627173777,0.118458452824032
"216",0.109689221830459,-0.554421119172161,-0.547770717144024,0.0322239837684552,1.55426903412026,-0.661796390744844,-1.2365908057657,6087,0.0378154469289468,-0.251371461792237,-0.174118606630265,-0.0130087300738477,-0.604422018450403,-0.192788071983993,-0.518013272689261
"217",1.05642243341972,0.431269017493536,0.56546162822743,0.557063705984692,-0.610221530680636,0.171079126888936,1.27141436660024,6105,0.364202478592467,0.195534981630792,0.179741975480508,-0.224885024681091,0.237302115128768,0.0498371032101006,0.532601013945696
"218",0.468794922778109,0.258340923341659,0.411912339210678,-1.23356593451777,1.02860703981147,0.460774959109381,-0.695444461520763,6037,0.161617424456489,0.11713034243377,0.130933619327298,0.497987039273034,-0.400003300295462,0.134228468495002,-0.291324712917403
"219",1.15436035185998,0.0681200197745949,0.219975727939738,-0.785908524392153,1.3068986838573,0.496986938136937,-0.820324387115748,6065,0.397966654281796,0.0308852393170448,0.0699231741357852,0.317269023284504,-0.508224974612783,0.144777389155615,-0.34363745748014
"220",1.15436035185998,0.500440255154286,0.0856201000500795,-1.07920131033652,0.966764452245729,1.43849839285338,-0.633004498723271,6071,0.397966654281796,0.226896837309601,0.0272158625017263,0.43567048203561,-0.375954039336056,0.419049326331547,-0.265168340636035
"221",-0.216770506303768,-1.03861978279742,-0.950837600812999,0.217461532785948,2.00778134293568,-0.661796390744844,-2.13156360586308,6085,-0.0747318053688187,-0.4709044515439,-0.302240541532441,-0.0877885987587559,-0.780783265486039,-0.192788071983993,-0.892921275388873
"222",-0.60852218006484,-1.26342630519486,-1.14277421208394,1.08190342820093,1.95624585329757,-0.734220348799956,-1.99627701980185,6041,-0.209788508126137,-0.57283048250003,-0.363250986723954,-0.436761319288335,-0.760742214686535,-0.213885913305218,-0.836249135445908
"223",-0.249416479117191,-0.986741354551852,-0.970031261940093,1.28257743963655,1.76041099267272,-0.6980083697724,-1.64245056394939,6061,-0.0859865305985953,-0.447383059784793,-0.308341586051593,-0.517772843696986,-0.684586221648419,-0.203336992644605,-0.688029692518155
"224",0.893192569352603,0.569611492815037,-0.547770717144024,0.479881393894068,0.482330849647434,-0.408312537551954,0.647014738625318,6093,0.307928852443584,0.25825869298841,-0.174118606630265,-0.193726746062378,-0.187568161820718,-0.118945627359703,0.271037291132014
"225",0.142335194643882,-0.0183440273013433,-0.336640444745989,0.695991867747813,0.554480535140798,0.171079126888935,0.0746484129816398,6089,0.0490701721587234,-0.00831708028146647,-0.107007116919601,-0.280969926194773,-0.215625632940024,0.0498371032101003,0.0312705452194714
"226",0.697316732472067,-0.519835500341786,-0.72051366728787,0.217461532785948,1.66764711132411,0.859106728412494,-1.45513067555692,6095,0.240400501064925,-0.235690533952832,-0.229028007302626,-0.0877885987587559,-0.648512330209312,0.250266595761743,-0.60956057567405
"227",1.02377646060629,0.898174871703603,-0.586158039398212,-0.70872621230153,0.348338576588331,0.424562980081826,0.823927966551546,6015,0.35294775336269,0.407227507462754,-0.186320695668568,0.286110744665791,-0.135461429742008,0.12367954783439,0.34514701259589
"228",-0.151478560676922,-0.173979312038032,0.469493322591961,-2.59197462731273,0.472023751719811,0.931530686467605,-0.726664442919509,6011,-0.0522223549092655,-0.0788812555587869,0.149236752884751,1.04637274296237,-0.183559951660817,0.271364437082968,-0.304402899058088
"229",0.925838542166026,0.673368349306163,0.124007422304268,-2.11344429235087,-0.610221530680636,0.460774959109381,0.324408264171608,6021,0.31918357767336,0.305301476506624,0.0394179515400289,0.853191415526355,0.237302115128768,0.134228468495002,0.135896034344944
"230",0.893192569352603,0.0681200197745949,-0.52857705601693,0.402699081803445,1.1316780190877,-0.154828684359065,0.23074831997537,6007,0.307928852443584,0.0308852393170448,-0.168017562111114,-0.162568467443666,-0.44008540189447,-0.0451031827354142,0.0966614759228921
"231",0.24027311308415,-0.519835500341786,-0.874062956304622,0.587936630820941,0.513252143430305,-0.625584411717289,-0.508124573128287,6009,0.0828343478480529,-0.235690533952832,-0.277836363455836,-0.237348336128576,-0.199592792300421,-0.18223915132338,-0.212855596073299
"232",1.08906840623314,0.811710824627665,-0.163897494602143,-2.05169844267837,0.399874066226448,2.30758588951472,-0.32080468473581,6031,0.375457203822243,0.368025187864242,-0.05209771624724,0.828264792631384,-0.155502480541512,0.672223422186253,-0.134386479229194
"233",0.991130487792871,-0.606299547417724,-0.874062956304622,1.14364927787343,0.0494327366872562,-0.915280243937734,-0.0606381730795927,6063,0.341693028132914,-0.274892853551343,-0.277836363455836,-0.461687942183304,-0.0192233351048843,-0.266630516608282,-0.0254015947234929
"234",-0.510584261624572,-0.865691688645539,-0.490189733762742,0.665118942911564,1.55426903412026,-0.734220348799956,-1.1741508429682,6079,-0.176024332436808,-0.392499812346877,-0.155815473072811,-0.268506614747288,-0.604422018450403,-0.213885913305218,-0.491856900407893
"235",1.3175902159271,1.58988724831111,0.104813761177174,-1.77384211915213,0.502945045502681,2.27137391048717,0.116275054846635,6019,0.454240280430679,0.720846064250844,0.0333169070208775,0.716094989604021,-0.19558458214052,0.66167450152564,0.0487081267403839
"236",1.48082007999421,1.22673825059217,0.00884545554170325,-1.91277028091525,0.410181164154072,1.8368301621565,-0.133484796343334,6029,0.510513906579562,0.556196321937096,0.00281168442512121,0.772179891117703,-0.159510690701413,0.535087453598287,-0.0559173623850894
"237",-0.184124533490345,-0.554421119172161,-0.144703833475049,-0.230195877339666,1.83256067816609,-0.299676600469287,-1.65285722441564,6059,-0.0634770801390422,-0.251371461792237,-0.0459966717280887,0.0929294172297749,-0.712643692767725,-0.0872988653778651,-0.692389087898383
"238",0.0770432490170365,-0.779227641569601,-0.0679291889666725,-0.338251114266538,1.56457613204788,-0.0824047263039541,-1.78814381047688,6111,0.0265607216991703,-0.353297492748366,-0.0215924936514837,0.136551007295972,-0.608430228610304,-0.0240053414141888,-0.749061227841347
"239",1.35023618874052,0.379390589247973,0.124007422304268,-1.15638362242714,0.915228962607613,0.931530686467605,-0.456091270797043,6101,0.465495005660455,0.172013589871686,0.0394179515400289,0.466828760654322,-0.355912988536552,0.271364437082968,-0.191058619172158
"240",-0.543230234437994,-1.26342630519486,-1.02761224532137,0.41813554422157,1.89440326573183,-0.915280243937734,-2.23563021052557,6081,-0.187279057666584,-0.57283048250003,-0.326644719609047,-0.168800123167409,-0.73669295372713,-0.266630516608282,-0.936515229191153
"241",0.501440895591531,-0.381493025020284,-0.874062956304622,0.695991867747813,0.616323122706538,-0.842856285882623,-0.424871289398297,6109,0.172872149686265,-0.172966822595214,-0.277836363455836,-0.280969926194773,-0.239674893899429,-0.245532675287057,-0.177980433031474
"242",1.21965229748683,0.344804970417598,-0.279059461364707,-1.20269300968152,0.781236689548511,1.29365047674316,-0.601784517324525,6077,0.420476104741349,0.156332662032281,-0.0887039833621476,0.485523727825549,-0.303806256457842,0.376853643689096,-0.252090154495351
"243",0.958484514979449,-1.10779102045817,-1.06599956757556,0.541627243566567,0.946150256390483,-0.6980083697724,-0.612191177790774,6005,0.330438302903137,-0.502266307222709,-0.338846808647349,-0.218653368957348,-0.367937619016255,-0.203336992644605,-0.256449549875579
"244",2.68872107409085,1.43425196357442,-0.0103482055853905,-2.66915693940336,0.544173437213174,2.30758588951472,0.0434284315828943,6047,0.926938740081294,0.650281888973523,-0.00328936009402997,1.07753102158108,-0.211617422780123,0.672223422186253,0.0181923590787876
"245",-1.42467150040041,-1.03861978279742,0.431106000337773,0.479881393894068,0.791543787476133,-1.27740003421329,-0.362431326600806,8095,-0.491156638870551,-0.4709044515439,0.137034663846449,-0.193726746062378,-0.307814466617742,-0.37211972321441,-0.151824060750106
"246",-0.314708424744035,-0.589006738002536,0.872560206260935,0.665118942911564,0.93584315846286,-1.45845992935107,-0.237551401005821,8007,-0.108495981058148,-0.267052389631641,0.277358687786928,-0.268506614747288,-0.363929408856354,-0.424864326517473,-0.0995113161873698
"247",-0.60852218006484,-0.087515264962094,0.0664264389229857,0.0785333710228275,1.15229221494295,-0.227252642414176,-0.789104405717001,8031,-0.209788508126137,-0.0396789359602756,0.0211148179825751,-0.0317036972450744,-0.448101822214271,-0.0662010240566396,-0.330559271339456
"248",-1.06556579945276,-1.0559125922126,-0.81648197292334,1.42150560139967,0.740008297838016,1.04016662355027,0.126681715312883,8061,-0.367354661343009,-0.478744915463602,-0.259533229898383,-0.573857745210669,-0.287773415818238,0.303011199064807,0.0530675221206117
"249",0.501440895591531,-0.0183440273013433,0.239169389066832,0.665118942911564,-0.960662860219829,-0.6980083697724,1.177754422404,8055,0.172872149686265,-0.00831708028146647,0.0760242186549363,-0.268506614747288,0.373581260565396,-0.203336992644605,0.493366455523644
"250",-0.60852218006484,0.673368349306163,-0.0295418667124846,-0.106704177994668,-0.0948666342994714,-0.842856285882623,1.1985677433365,8009,-0.209788508126137,0.305301476506624,-0.00939040461318123,0.0430761714398351,0.0368916071337275,-0.245532675287057,0.5020852462841
"251",-1.26144163633329,-1.03861978279742,0.27755671132102,0.834920029510934,1.06983543152196,-1.13255211810307,-0.476904591729541,8015,-0.434883012721668,-0.4709044515439,0.0882263076932388,-0.337054827708454,-0.416036140935064,-0.329924040571958,-0.199777409932615
"252",-1.00027385382591,-1.47094001817711,-0.336640444745989,1.82285362427091,1.12137092116008,-2.39997138406752,-1.70489052674689,8047,-0.344845210883456,-0.666916049536457,-0.107007116919601,-0.735880794027972,-0.436077191734568,-0.699136263693405,-0.714186064799523
"253",-0.347354397557458,-0.623592356832911,0.527074305973243,0.0939698334409521,0.338031478660708,0.0986551688338245,0.220341659509122,8063,-0.119750706287925,-0.282733317471046,0.167539886442205,-0.0379353529688169,-0.131453219582107,0.028739261888875,0.092302080542664
"254",-0.314708424744035,-0.796520450984788,1.65950031247179,0.202025070367825,1.29659158592968,-0.263464621441732,-1.47594399648941,8045,-0.108495981058148,-0.361137956668068,0.527501513072129,-0.0815569430350141,-0.504216764452882,-0.0767499447172525,-0.618279366434506
"255",0.305565058710995,-1.03861978279742,0.354331355829396,1.46781498865405,1.02860703981147,0.134867147861381,-0.518531233594536,8051,0.105343798307606,-0.4709044515439,0.112630485769844,-0.592552712381896,-0.400003300295462,0.0392881825494879,-0.217214991453527
"256",-0.673814125691685,-1.17696225811892,-0.81648197292334,1.2517045148003,1.7501038947451,-0.625584411717289,-1.73611050814563,8059,-0.23229795858569,-0.533628162901518,-0.259533229898383,-0.505309532249501,-0.680578011488519,-0.18223915132338,-0.727264250940207
"257",-1.5552553916541,-0.761934832154413,-0.874062956304622,1.57587022558092,0.90492186467999,-1.16876409713062,-0.913984331311986,8079,-0.536175539789657,-0.345457028828664,-0.277836363455836,-0.636174302448093,-0.351904778376652,-0.340472961232571,-0.382872015902192
"258",-0.151478560676922,-0.727349213324037,0.0856201000500795,1.82285362427091,1.21413480250869,-1.13255211810307,-0.903577670845737,8091,-0.0522223549092655,-0.329776100989259,0.0272158625017263,-0.735880794027972,-0.472151083173676,-0.329924040571959,-0.378512620521964
"259",-0.0208946694232316,-0.243150549698783,-0.0487355278395787,0.927538804019683,0.255574695239723,-0.879068264910179,-0.633004498723271,8103,-0.00720345399015941,-0.110243111237596,-0.0154914491323325,-0.37444476205091,-0.0993875383029007,-0.256081595947669,-0.265168340636035
"260",0.142335194643882,-0.225857740283595,-0.317446783618895,0.711428330165936,-0.579300236897766,-0.915280243937734,0.407661547901598,8115,0.0490701721587234,-0.102402647317894,-0.10090607240045,-0.287201581918515,0.225277484649065,-0.266630516608282,0.170771197386769
"261",-0.347354397557458,-0.71005640390885,-0.413415089254365,0.232897995204074,1.14198511701533,-0.0461927472763979,-1.28862410809694,8123,-0.119750706287925,-0.321935637069557,-0.131411294996206,-0.0940202544824991,-0.444093612054371,-0.0134564207535759,-0.539810249590402
"262",0.991130487792871,0.586904302230225,0.584655289354524,-0.183886490085292,-0.857591880943596,-0.516948474634622,1.28182102706649,8021,0.341693028132914,0.266099156908113,0.185843019999659,0.0742344500585475,0.333499158966388,-0.150592389341542,0.536960409325924
"263",0.762608678098912,-0.173979312038032,0.162394744558456,1.15908574029155,0.657551514417031,-1.82057971962663,0.386848226969101,8027,0.262909951524478,-0.0788812555587869,0.0516200405783313,-0.467919597907047,-0.255707734539032,-0.530353533123601,0.162052406626313
"264",0.893192569352603,2.38535648140974,0.719010917244183,-1.29531178419026,-1.80584489028494,-0.44452451657951,2.11435386436638,8023,0.307928852443584,1.08150740455715,0.228550331633718,0.522913662168004,0.702254493677262,-0.129494548020316,0.885712039744167
"265",-0.412646343184304,-0.398785834435472,0.431106000337773,-0.554361588120283,1.01829994188385,0.967742665495161,-1.34065741042818,8001,-0.142260156747478,-0.180807286514916,0.137034663846449,0.223794187428367,-0.39599509013556,0.281913357743581,-0.561607226491542
"266",-1.00027385382591,-1.57469687466823,-1.44987279011744,1.80741716185279,2.5437504351721,-0.661796390744844,-2.74555657337176,8035,-0.344845210883456,-0.71395883305467,-0.460867699030374,-0.72964913830423,-0.989210193800881,-0.192788071983993,-1.15012560282233
"267",-1.19614969070645,-1.21154787694929,1.10288413978606,0.572500168402816,1.76041099267272,-0.806644306855067,-2.22522355005932,8037,-0.412373562262115,-0.549309090740923,0.350571222016743,-0.231116680404833,-0.684586221648419,-0.234983754626444,-0.932155833810925
"268",-0.216770506303768,-0.658177975663287,0.949334850769312,0.0939698334409521,0.678165710272277,-0.480736495607066,-0.352024666134557,8065,-0.0747318053688187,-0.29841424531045,0.301762865863533,-0.0379353529688169,-0.263724154858834,-0.140043468680929,-0.147464665369878
"269",-0.641168152878262,-1.10779102045817,-0.0295418667124846,1.39063267656342,0.740008297838016,-0.770432327827512,-1.2365908057657,8067,-0.221043233355914,-0.502266307222709,-0.00939040461318123,-0.561394433763184,-0.287773415818238,-0.224434833965831,-0.518013272689261
"270",-0.902335935385644,-0.623592356832911,0.680623594989995,0.603373093239064,0.626630220634161,0.315927042999159,-0.352024666134557,8081,-0.311081035194126,-0.282733317471046,0.216348242595415,-0.243579991852318,-0.24368310405933,0.0920327858525517,-0.147464665369878
"271",-0.673814125691685,-1.47094001817711,0.392718678083584,1.40606913898155,1.87378906987658,-0.44452451657951,-1.80895713140937,8097,-0.23229795858569,-0.666916049536457,0.124832574808146,-0.567626089486926,-0.728676533407328,-0.129494548020316,-0.757780018601803
"272",0.795254650912336,0.673368349306163,0.411912339210678,-0.446306351193411,-0.713292509956869,-0.00998076824884217,0.7927079851528,8105,0.274164676754254,0.305301476506624,0.130933619327298,0.180172597362169,0.277384216727776,-0.00290750009296318,0.332068826455206
"273",0.566732841218377,-0.813813260399976,1.00691583415059,0.634246018075315,0.585401828923666,-1.49467190837863,-0.435277949864546,8017,0.195381600145818,-0.368978420587771,0.320065999420986,-0.256043303299803,-0.227650263419726,-0.435413247178086,-0.182339828411702
"274",0.958484514979449,2.24701400608824,0.546267967100337,-0.199322952503414,0.0700469325425016,0.605622875219605,1.83337403177767,8011,0.330438302903137,1.01878369319953,0.173640930961356,0.0804661057822892,-0.0272397554246855,0.176424151137454,0.76800836447801
"275",4.90864722540359,1.58988724831111,-0.394221428127271,-0.199322952503414,0.616323122706538,0.207291105916492,1.34426098986398,8025,1.6922600557061,0.720846064250844,-0.125310250477055,0.0804661057822892,-0.239674893899429,0.0603860238707132,0.563116781607292
"276",-1.94700706541517,-0.104808074377282,-0.739707328414964,0.726864792584063,-0.630835726535883,-0.408312537551955,0.886367929349037,8033,-0.671232242546976,-0.0475193998799778,-0.235129051821778,-0.293433237642258,0.24531853544857,-0.118945627359704,0.371303384877258
"277",1.12171437904656,-1.71303934998973,0.162394744558456,1.59130668799904,0.915228962607613,0.786682770357382,-0.393651307999551,8111,0.38671192905202,-0.776682544412288,0.0516200405783313,-0.642405958171835,-0.355912988536552,0.229168754440517,-0.16490224689079
"278",-1.48996344602725,-0.796520450984788,-0.375027767000177,-0.168450027667167,0.100968226325373,-2.43618336309507,-0.17511143820833,8057,-0.513666089330104,-0.361137956668068,-0.119209205957904,0.068002794334805,-0.0392643859043884,-0.709685184354018,-0.0733549439060018
"279",-0.347354397557458,-1.02132697338223,-0.739707328414964,1.48325145107217,1.71918260096223,-0.661796390744844,-1.10130421970446,8069,-0.119750706287925,-0.463063987624198,-0.235129051821778,-0.598784368105638,-0.668553381008816,-0.192788071983993,-0.461341132746297
"280",-0.0535406422366543,-0.19127212145322,-0.0295418667124846,0.279207382458448,0.750315395765641,-0.00998076824884217,0.105868394380385,8075,-0.018458179219936,-0.0867217194784892,-0.00939040461318123,-0.112715221653726,-0.29178162597814,-0.00290750009296318,0.0443487313601553
"281",-0.151478560676922,-0.260443359113971,0.814979222879653,0.587936630820941,-0.208244711503327,-0.553160453662177,0.0642417525153911,8083,-0.0522223549092655,-0.118083575157298,0.259055554229474,-0.237348336128576,0.0809819188926361,-0.161141310002154,0.0269111498392434
"282",-0.837043989758799,-0.969448545136665,-0.125510172347955,1.14364927787343,0.987378648100977,-0.480736495607066,-0.768291084784504,8113,-0.288571584734573,-0.439542595865091,-0.0398956272089375,-0.461687942183304,-0.383970459655858,-0.140043468680929,-0.321840480578999
"283",0.109689221830459,-1.09049821104298,-0.336640444745989,1.3751962141453,1.70887550303461,-0.625584411717289,-1.34065741042818,8119,0.0378154469289468,-0.494425843303007,-0.107007116919601,-0.555162778039441,-0.664545170848915,-0.18223915132338,-0.561607226491542
"284",-0.380000370370881,-1.00403416396704,-0.950837600812999,1.29801390205467,1.91501746158707,-0.6980083697724,-1.36147073136068,8013,-0.131005431517701,-0.455223523704496,-0.302240541532441,-0.524004499420728,-0.744709374046931,-0.203336992644605,-0.570326017251998
"285",-0.902335935385644,-1.38447597110117,-0.758900989542058,1.56043376316279,1.85317487402133,-1.53088388740618,-2.29807017332306,8039,-0.311081035194126,-0.627713729937945,-0.241230096340929,-0.62994264672435,-0.720660113087527,-0.445962167838699,-0.962671601472521
"286",0.468794922778109,-0.0529296461317186,-0.163897494602143,0.171152145531575,-0.476229257621533,-0.516948474634622,0.667828059557816,8071,0.161617424456489,-0.023998008120871,-0.05209771624724,-0.0690936315875292,0.185195383050057,-0.150592389341542,0.27975608189247
"287",-1.29408760914672,-0.139393693207657,0.411912339210678,-0.122140640412791,-0.218551809430951,-0.734220348799956,-0.0294181916808472,8125,-0.446137737951445,-0.0632003277193822,0.130933619327298,0.0493078271635769,0.0849901290525373,-0.213885913305218,-0.012323408582809
"288",-0.869689962572221,-0.156686502622845,-1.04680590644847,0.248334457622199,0.492637947575058,-0.625584411717289,0.480508171165339,8073,-0.29982630996435,-0.0710407916390846,-0.332745764128198,-0.100251910206242,-0.191576371980619,-0.18223915132338,0.201286965048365
"289",-1.06556579945276,-0.917570116891102,-0.413415089254365,1.52956083832654,1.90471036365945,-1.56709586643374,-1.1741508429682,8107,-0.367354661343009,-0.416021204105984,-0.131411294996206,-0.617479335276865,-0.740701163887031,-0.456511088499312,-0.491856900407893
"290",-1.00027385382591,-1.29801192402523,1.9665988905053,1.11277635303718,1.24505609629156,-1.45845992935107,-1.47594399648941,8117,-0.344845210883456,-0.588511410339434,0.625118225378549,-0.44922463073582,-0.484175713653378,-0.424864326517473,-0.618279366434506
"291",1.15436035185998,1.26132386942254,0.411912339210678,-0.47717927602966,-0.321622788707184,0.678046833274716,1.22978772473524,8003,0.397966654281796,0.571877249776501,0.130933619327298,0.192635908809654,0.125072230651546,0.197521992458679,0.515163432424784
"292",-1.03291982663933,-1.36718316168598,-0.298253122491801,1.80741716185279,1.14198511701533,-0.661796390744844,-1.49675731742191,8019,-0.356099936113232,-0.619873266018243,-0.0948050278812988,-0.72964913830423,-0.444093612054371,-0.192788071983993,-0.626998157194963
"293",0.697316732472067,-0.0702224555469065,0.335137694702302,0.41813554422157,0.00820434497676174,-1.31361201324085,0.303594943239111,8029,0.240400501064925,-0.0318384720405734,0.106529441250693,-0.168800123167409,-0.00319049446528063,-0.382668643875022,0.127177243584488
"294",-0.0535406422366543,0.154584066850533,-0.490189733762742,0.557063705984692,0.6884728081999,-0.408312537551955,0.0954617339141372,8043,-0.018458179219936,0.0700875589155561,-0.155815473072811,-0.224885024681091,-0.267732365018734,-0.118945627359704,0.0399893359799275
"295",0.958484514979449,0.569611492815037,-0.586158039398212,0.402699081803445,0.0494327366872562,0.89531870744005,0.428474868834095,8101,0.330438302903137,0.25825869298841,-0.186320695668568,-0.162568467443666,-0.0192233351048843,0.260815516422356,0.179489988147225
"296",0.534086868404954,0.275633732756847,0.354331355829396,0.479881393894068,0.224653401456851,-0.553160453662177,0.178715017644127,8085,0.184126874916042,0.124970806353472,0.112630485769844,-0.193726746062378,-0.0873629078231978,-0.161141310002154,0.0748644990217519
"297",-0.60852218006484,-0.865691688645539,-0.605351700525306,-0.878527298900899,0.472023751719811,1.36607443479827,-0.633004498723271,8087,-0.209788508126137,-0.392499812346877,-0.192421740187719,0.354658957626958,-0.183559951660817,0.397951485010321,-0.265168340636035
"298",-0.575876207251417,-1.41906158993154,-0.394221428127271,1.57587022558092,1.25536319421918,-1.49467190837862,-1.10130421970446,8093,-0.198533782896361,-0.64339465777735,-0.125310250477055,-0.636174302448093,-0.488183923813279,-0.435413247178086,-0.461341132746297
"299",0.436148949964686,0.638782730475788,1.6211129902176,-0.878527298900899,-0.28039439699669,-1.27740003421329,1.40670095266147,8109,0.150362699226712,0.289620548667219,0.515299424033827,0.354658957626958,0.109039390011942,-0.37211972321441,0.58927315388866
"300",0.534086868404954,0.0854128291897826,0.0856201000500795,0.61880955565719,1.31720578178492,0.207291105916492,-0.237551401005821,8077,0.184126874916042,0.038725703236747,0.0272158625017263,-0.249811647576061,-0.512233184772684,0.0603860238707132,-0.0995113161873698
"301",0.664670759658645,0.379390589247973,0.219975727939738,-0.755035599555904,0.575094730996044,0.533198917164493,0.428474868834095,8099,0.229145775835148,0.172013589871686,0.0699231741357852,0.304805711837019,-0.223642053259826,0.155326309816228,0.179489988147225
"302",-0.739106071318531,-0.969448545136665,-0.355834105873083,1.02015757852843,-0.208244711503327,-1.6757318035164,-0.4040579684658,8053,-0.254807409045243,-0.439542595865091,-0.113108161438752,-0.411834696393364,0.0809819188926361,-0.48815785048115,-0.169261642271019
"303",0.142335194643882,-0.658177975663287,-0.6245453616524,1.15908574029155,1.84286777609371,0.134867147861381,-1.12211754063696,8041,0.0490701721587234,-0.29841424531045,-0.19852278470687,-0.467919597907047,-0.716651902927626,0.0392881825494879,-0.470059923506753
"304",-0.706460098505108,-0.364200215605097,-0.989224923067187,1.05103050336468,0.327724380733085,-0.0824047263039541,-0.310398024269562,8121,-0.243552683815467,-0.165126358675512,-0.314442630570744,-0.42429800784085,-0.127445009422206,-0.0240053414141888,-0.130027083848966
"305",-0.575876207251417,-1.03861978279742,1.25643342880282,1.42150560139967,1.66764711132411,-1.24118805518574,-1.13252420110321,8049,-0.198533782896361,-0.4709044515439,0.399379578169953,-0.573857745210669,-0.648512330209312,-0.361570802553797,-0.474419318886981
"306",-0.380000370370881,-0.796520450984788,-0.259865800237613,0.942975266437806,1.69856840510699,0.315927042999159,-1.53838395928691,8005,-0.131005431517701,-0.361137956668068,-0.0826029388429963,-0.380676417774652,-0.660536960689015,0.0920327858525517,-0.644435738715875
"307",0.958484514979449,1.08839577527067,-0.144703833475049,-0.137577102830918,0.204039205601606,1.22122651868805,1.35466765033023,8089,0.330438302903137,0.493472610579478,-0.0459966717280887,0.0555394828873201,-0.0793464875033966,0.35575580236787,0.56747617698752
"308",-0.771752044131953,-1.52281844642267,-1.12358055095685,1.48325145107217,2.18300200770528,-1.24118805518574,-2.06912364306559,8014,-0.26606213427502,-0.690437441295564,-0.357149942204803,-0.598784368105638,-0.848922838204352,-0.361570802553797,-0.866764903107505
"309",-0.412646343184304,-1.22884068636448,-1.35390448448197,1.20539512754593,1.40996966313353,-0.734220348799956,-1.72570384767938,9007,-0.142260156747478,-0.557149554660625,-0.430362476434618,-0.486614565078274,-0.548307076211791,-0.213885913305218,-0.722904855559979
"310",0.338211031524418,-0.606299547417724,-1.14277421208394,0.495317856312193,1.09044962737721,0.315927042999159,-1.16374418250195,9003,0.116598523537383,-0.274892853551343,-0.363250986723954,-0.199958401786121,-0.424052561254866,0.0920327858525517,-0.487497505027665
"311",0.403502977151263,-0.692763594493662,-1.12358055095685,0.340953232130947,0.90492186467999,0.678046833274716,-0.913984331311986,9015,0.139107973996936,-0.314095173149855,-0.357149942204803,-0.137641844548696,-0.351904778376652,0.197521992458679,-0.382872015902192
"312",-0.184124533490345,-1.54011125583786,-1.46906645124454,1.22083158996405,1.63672581754124,-0.661796390744844,-1.78814381047688,9013,-0.0634770801390422,-0.698277905215266,-0.466968743549525,-0.492846220802016,-0.636487699729609,-0.192788071983993,-0.749061227841347
"313",0.403502977151263,-0.917570116891102,-0.298253122491801,0.495317856312193,1.616111621686,-0.154828684359065,-1.68407720581439,9001,0.139107973996936,-0.416021204105984,-0.0948050278812988,-0.199958401786121,-0.628471279409808,-0.0451031827354142,-0.705467274039067
"314",0.436148949964686,-0.571713928587348,-0.989224923067187,0.572500168402816,0.925536060535237,0.207291105916492,-0.976424294109478,9009,0.150362699226712,-0.259211925711939,-0.314442630570744,-0.231116680404833,-0.359921198696453,0.0603860238707132,-0.409028388183561
"315",-0.1188325878635,-1.31530473344042,-1.18116153433813,0.896665879183434,1.39966256520591,-1.16876409713062,-1.68407720581439,9005,-0.0409676296794891,-0.596351874259136,-0.375453075762257,-0.361981450603425,-0.54429886605189,-0.340472961232571,-0.705467274039067
"316",0.207627140270727,-0.744642022739225,-1.2771298399736,0.881229416765309,1.34812707556779,0.496986938136937,-1.40309737322567,9011,0.0715796226182765,-0.337616564908962,-0.405958298358013,-0.355749794879683,-0.524257815252386,0.144777389155615,-0.58776359877291
"317",0.534086868404954,0.362097779832785,-1.23874251771941,0.634246018075315,0.791543787476133,0.0986551688338245,-0.966017633643229,11001,0.184126874916042,0.164173125951983,-0.39375620931971,-0.256043303299803,-0.307814466617742,0.028739261888875,-0.404668992803332
"318",0.0443972762036138,-0.675470785078474,-0.989224923067187,0.742301255002187,1.12137092116008,0.207291105916492,-1.16374418250195,10003,0.0153059964693937,-0.306254709230153,-0.314442630570744,-0.299664893366,-0.436077191734568,0.0603860238707132,-0.487497505027665
"319",-0.086186615050077,-0.623592356832911,-0.643739022779494,0.0939698334409521,0.606016024778914,-0.44452451657951,-0.945204312710732,10005,-0.0297129044497125,-0.282733317471046,-0.204623829226021,-0.0379353529688169,-0.235666683739528,-0.129494548020316,-0.395950202042876
"320",0.109689221830459,-0.295028977944346,-0.682126345033682,0.186588607949702,1.12137092116008,1.00395464452272,-0.664224480122017,10001,0.0378154469289468,-0.133764502996703,-0.216825918264324,-0.0753252873112724,-0.436077191734568,0.292462278404194,-0.278246526776719
"321",0.207627140270727,-0.329614596774721,0.315944033575208,0.38726261938532,0.894614766752366,-0.0461927472763979,-0.0814514940120907,12101,0.0715796226182765,-0.149445430836107,0.100428396731541,-0.156336811719924,-0.34789656821675,-0.0134564207535759,-0.0341203854839492
"322",0.338211031524418,0.673368349306163,1.33320807331119,-0.261068802175915,-0.764827999594986,-0.372100558524399,0.449288189766593,12041,0.116598523537383,0.305301476506624,0.423783756246558,0.10539272867726,0.29742526752728,-0.108396706699091,0.188208778907681
"323",1.67669591687475,0.206462495096096,0.584655289354524,-0.338251114266538,-0.239166005286198,-0.987704201992846,1.1569411014715,12055,0.578042257958221,0.0936089506746629,0.185843019999659,0.136551007295972,0.093006549372339,-0.287728357929508,0.484647664763187
"324",0.893192569352603,0.84629644345804,0.603848950481619,-0.924836686155273,0.358645674515956,0.714258812302271,0.584574775827826,12121,0.307928852443584,0.383706115703647,0.19194406451881,0.373353924798185,-0.139469639901909,0.208070913119292,0.244880918850645
"325",0.0770432490170365,0.171876876265721,-0.0871228500937668,0.912102341601557,1.18321350872582,-0.480736495607066,0.407661547901598,12001,0.0265607216991703,0.0779280228352584,-0.027693538170635,-0.368213106327167,-0.460126452693974,-0.140043468680929,0.170771197386769
"326",-0.086186615050077,1.6071800577263,1.98579255163239,-2.42217354071336,-2.0532152405479,0.967742665495161,1.30263434799899,12027,-0.0297129044497125,0.728686528170546,0.631219269897701,0.977824530001204,0.798451537514882,0.281913357743581,0.54567920008638
"327",0.72996270528549,-0.761934832154413,1.50595102345504,-1.35705763386276,-1.01219834985795,0.424562980081826,1.1569411014715,12013,0.251655226294701,-0.345457028828664,0.478693156918919,0.547840285062974,0.3936223113649,0.12367954783439,0.484647664763187
"328",0.827900623725758,-0.571713928587348,0.296750372448114,0.587936630820941,1.02860703981147,-1.3498239922684,-0.0502315126133446,12015,0.285419401984031,-0.259211925711939,0.0943273522123901,-0.237348336128576,-0.400003300295462,-0.393217564535635,-0.0210421993432651
"329",1.02377646060629,0.0162415915290319,0.411912339210678,0.124842758277201,0.327724380733085,-0.227252642414176,0.324408264171608,12023,0.35294775336269,0.00736384755793796,0.130933619327298,-0.0503986644163018,-0.127445009422206,-0.0662010240566396,0.135896034344944
"330",-0.0535406422366543,0.950053299949166,1.21804610654863,-1.09463777275465,-2.6304127244948,0.243503084944048,1.219381064269,12029,-0.018458179219936,0.43074889922186,0.38717748913165,0.441902137759353,1.02291130646933,0.0709349445313261,0.510804037044556
"331",0.0443972762036138,-0.848398879230351,0.219975727939738,0.634246018075315,1.20382770458107,-1.16876409713062,-0.591377856858276,12085,0.0153059964693937,-0.384659348427175,0.0699231741357852,-0.256043303299803,-0.468142873013775,-0.340472961232571,-0.247730759115123
"332",1.28494424311368,1.53800882006555,1.08369047865897,-1.01745546066402,-0.744213803739739,0.134867147861381,1.6044275015202,12107,0.442985555200902,0.697324672491737,0.344470177497592,0.410743859140641,0.289408847207479,0.0392881825494879,0.672101666112993
"333",-0.216770506303768,-0.934862926306289,0.18158840568555,0.973848191274057,1.19352060665344,-1.24118805518574,-0.664224480122017,12115,-0.0747318053688187,-0.423861668025686,0.0577210850974826,-0.393139729222137,-0.464134662853874,-0.361570802553797,-0.278246526776719
"334",1.12171437904656,1.29590948825292,0.219975727939738,-1.58860457013463,-1.26987579804853,1.58334630896361,1.06328115727527,12125,0.38671192905202,0.587558177615906,0.0699231741357852,0.641315120919111,0.49382756536242,0.461245008973998,0.445413106341135
"335",-0.086186615050077,-0.571713928587348,0.469493322591961,0.834920029510934,1.06983543152196,-0.335888579496844,-0.945204312710732,12091,-0.0297129044497125,-0.259211925711939,0.149236752884751,-0.337054827708454,-0.416036140935064,-0.097847786038478,-0.395950202042876
"336",-0.151478560676922,0.32751216100241,0.239169389066832,-1.03289192308215,-0.538071845187273,-0.154828684359065,1.05287449680902,12123,-0.0522223549092655,0.148492198112579,0.0760242186549363,0.416975514864382,0.209244644009462,-0.0451031827354142,0.441053710960907
"337",0.174981167457305,-0.48524988151141,0.0280391166687976,0.202025070367825,0.544173437213174,0.678046833274716,-0.851544368514494,12129,0.0603248973884999,-0.220009606113428,0.00891272894427255,-0.0815569430350141,-0.211617422780123,0.197521992458679,-0.356715643620824
"338",1.21965229748683,1.0365173470251,0.411912339210678,-0.878527298900899,-0.383465376272923,0.134867147861381,1.05287449680902,12133,0.420476104741349,0.469951218820372,0.130933619327298,0.354658957626958,0.14912149161095,0.0392881825494879,0.441053710960907
"339",0.338211031524418,0.0681200197745949,0.315944033575208,0.495317856312193,0.87400057089712,0.714258812302272,-0.341618005668308,12031,0.116598523537383,0.0308852393170448,0.100428396731541,-0.199958401786121,-0.339880147896949,0.208070913119292,-0.14310526998965
"340",0.403502977151263,0.448561826908723,0.738204578371277,-1.23356593451777,-0.46592215969391,-0.263464621441732,0.345221585104105,12007,0.139107973996936,0.203375445550494,0.234651376152869,0.497987039273034,0.181187172890157,-0.0767499447172525,0.1446148251054
"341",0.403502977151263,-0.381493025020284,0.162394744558456,0.85035649192906,1.34812707556779,-0.335888579496844,-0.372837987067054,12009,0.139107973996936,-0.172966822595214,0.0516200405783313,-0.343286483432198,-0.524257815252386,-0.097847786038478,-0.156183456130334
"342",0.566732841218377,-0.554421119172161,-0.0487355278395787,0.75773771742031,1.65734001339649,0.460774959109381,-1.1741508429682,12019,0.195381600145818,-0.251371461792237,-0.0154914491323325,-0.305896549089742,-0.644504120049411,0.134228468495002,-0.491856900407893
"343",2.10109356344924,1.55530162948073,1.6403066513447,-1.89733381849712,-0.301008592851937,-0.770432327827512,0.844741287484043,12067,0.724353685945316,0.70516513641144,0.521400468552978,0.76594823539396,0.117055810331743,-0.224434833965831,0.353865803356346
"344",0.272919085897573,-0.41607864385066,0.200782066812644,0.371826156967194,1.08014252944959,-0.227252642414176,-0.289584703337064,12069,0.0940890730778296,-0.188647750434619,0.0638221296166338,-0.150105155996181,-0.420044351094966,-0.0662010240566396,-0.12130829308851
"345",-0.216770506303768,-0.554421119172161,0.239169389066832,0.804047104674686,1.12137092116008,0.279715063971603,-1.09089755923821,12089,-0.0747318053688187,-0.251371461792237,0.0760242186549363,-0.32459151626097,-0.436077191734568,0.0814838651919388,-0.456981737366069
"346",0.0117513033901911,-0.450664262681035,0.27755671132102,0.695991867747813,0.90492186467999,-0.553160453662178,-0.0606381730795938,12103,0.00405127123961715,-0.204328678274023,0.0882263076932388,-0.280969926194773,-0.351904778376652,-0.161141310002155,-0.0254015947234934
"347",0.436148949964686,0.223755304511284,0.623042611608713,-0.291941727012164,-0.52776474725965,0.352139022026714,0.033021771116645,12105,0.150362699226712,0.101449414594365,0.198045109037962,0.117856040124745,0.205236433849561,0.102581706513164,0.0138329636985593
"348",0.403502977151263,0.10270563860497,0.834172884006747,0.00135105893220424,0.956457354318107,-0.00998076824884217,0.0642417525153911,12111,0.139107973996936,0.0465661671564493,0.265156598748625,-0.000545418626362112,-0.371945829176156,-0.00290750009296318,0.0269111498392434
"349",1.18700632467341,0.396683398663161,2.00498621275948,-1.92820674333338,-2.19751461153463,-0.154828684359065,1.00084119447777,12043,0.409221379511573,0.179854053791388,0.637320314416852,0.778411546841445,0.854566479753493,-0.0451031827354142,0.419256734059767
"350",0.599378814031799,1.71093691421742,3.09902489700384,-3.2557425112921,-0.857591880943596,2.74212963784539,0.896774589815287,12051,0.206636325375595,0.77572931168876,0.985079852008473,1.3143339390833,0.333499158966388,0.798810470113606,0.375662780257487
"351",0.599378814031799,-0.761934832154413,0.488686983719054,0.340953232130947,0.884307668824744,-1.3498239922684,-0.237551401005821,12061,0.206636325375595,-0.345457028828664,0.155337797403903,-0.137641844548696,-0.34388835805685,-0.393217564535635,-0.0995113161873698
"352",1.57875799843448,0.967346109364353,0.143201083431362,-1.0020189982459,-0.55868604104252,0.859106728412494,1.06328115727527,12063,0.544278082268891,0.438589363141562,0.0455189960591801,0.404512203416897,0.217261064329264,0.250266595761743,0.445413106341135
"353",0.338211031524418,-0.364200215605097,0.699817256117089,0.294643844876571,1.12137092116008,-0.154828684359065,-0.633004498723271,12099,0.116598523537383,-0.165126358675512,0.222449287114567,-0.118946877377468,-0.436077191734568,-0.0451031827354142,-0.265168340636035
"354",-0.347354397557458,-0.986741354551852,-0.451802411508553,1.26714097721843,1.5748832299755,-0.806644306855067,-1.50716397788816,12109,-0.119750706287925,-0.447383059784793,-0.143613384034509,-0.511541187973244,-0.612438438770204,-0.234983754626444,-0.63135755257519
"355",0.0770432490170365,-0.589006738002536,0.0280391166687976,1.22083158996405,1.93563165744232,-0.335888579496844,-0.934797652244484,12117,0.0265607216991703,-0.267052389631641,0.00891272894427255,-0.492846220802016,-0.752725794366733,-0.097847786038478,-0.391590806662648
"356",0.338211031524418,0.690661158721351,1.83224326261564,-0.801344986810276,0.338031478660708,0.931530686467605,0.241154980441619,12086,0.116598523537383,0.313141940426326,0.58241091374449,0.323500679008245,-0.131453219582107,0.271364437082968,0.10102087130312
"357",0.0117513033901911,-0.156686502622845,0.738204578371277,0.449008469057817,1.08014252944959,0.0262312107787135,-0.268771382404567,12005,0.00405127123961715,-0.0710407916390846,0.234651376152869,-0.181263434614893,-0.420044351094966,0.00764142056764958,-0.112589502328054
"358",0.0443972762036138,-0.537128309756973,0.392718678083584,0.881229416765309,0.90492186467999,-0.915280243937734,-0.456091270797043,12035,0.0153059964693937,-0.243530997872534,0.124832574808146,-0.355749794879683,-0.351904778376652,-0.266630516608282,-0.191058619172158
"359",0.501440895591531,0.91546768111879,1.48675736232794,-0.739599137137777,-0.105173732227094,-1.20497607615818,0.501321492097837,12037,0.172872149686265,0.415067971382456,0.472592112399768,0.298574056113275,0.0408998172936279,-0.351021881893184,0.210005755808821
"360",-0.314708424744035,-0.104808074377282,0.546267967100337,-0.291941727012164,0.667858612344654,-0.480736495607066,0.261968301374116,12045,-0.108495981058148,-0.0475193998799778,0.173640930961356,0.117856040124745,-0.259715944698933,-0.140043468680929,0.109739662063576
"361",2.06844759063582,1.62447286714148,0.469493322591961,-1.66578688222526,-0.857591880943596,1.43849839285338,1.20897440380275,12047,0.71309896071554,0.736526992090248,0.149236752884751,0.672473399537823,0.333499158966388,0.419049326331547,0.506444641664328
"362",1.05642243341972,0.223755304511284,2.02417987388658,-0.986582535827773,-1.09465513327893,0.496986938136937,1.03206117587652,12077,0.364202478592467,0.101449414594365,0.643421358936003,0.398280547693156,0.425687992644106,0.144777389155615,0.432334920200451
"363",0.0770432490170365,0.535025873984662,1.39078905669247,-0.0295218659040451,0.224653401456851,1.22122651868805,-0.123078135877085,12097,0.0265607216991703,0.242577765149006,0.442086889804012,0.0119178928211228,-0.0873629078231978,0.35575580236787,-0.0515579670048611
"364",0.0770432490170365,-1.0559125922126,-0.893256617431716,0.834920029510934,1.20382770458107,-2.21891148892974,-0.726664442919509,12119,0.0265607216991703,-0.478744915463602,-0.283937407974988,-0.337054827708454,-0.468142873013775,-0.646391660390341,-0.304402899058088
"365",-0.216770506303768,0.0854128291897826,0.9877221730235,-0.044958328322168,0.729701199910394,-0.372100558524399,-0.154298117275832,12131,-0.0747318053688187,0.038725703236747,0.313964954901835,0.0181495485448646,-0.283765205658338,-0.108396706699091,-0.0646361531455455
"366",0.697316732472067,0.932760490533978,0.795785561752559,-1.0020189982459,-1.23895450426566,1.69198224604627,0.751081343287805,12039,0.240400501064925,0.422908435302158,0.252954509710323,0.404512203416897,0.481802934882718,0.492891770955836,0.314631244934294
"367",1.67669591687475,1.33049510708329,1.44837004007376,-1.55773164529839,-0.476229257621533,-0.0461927472763979,1.16734776193775,12059,0.578042257958221,0.60323910545531,0.460390023361465,0.628851809471627,0.185195383050057,-0.0134564207535759,0.489007060143415
"368",0.272919085897573,-0.139393693207657,-0.643739022779494,-0.8167814492284,-0.321622788707184,-0.154828684359065,0.39725488743535,12065,0.0940890730778296,-0.0632003277193822,-0.204623829226021,0.329732334731988,0.125072230651546,-0.0451031827354142,0.166411802006541
"369",0.24027311308415,-0.243150549698783,0.853366545133841,0.171152145531575,1.01829994188385,-0.263464621441732,-0.414464628932049,12071,0.0828343478480529,-0.110243111237596,0.271257643267776,-0.0690936315875292,-0.39599509013556,-0.0767499447172525,-0.173621037651247
"370",0.860546596539181,0.223755304511284,0.450299661464867,0.0939698334409521,0.502945045502681,-0.299676600469288,0.480508171165339,12083,0.296674127213807,0.101449414594365,0.1431357083656,-0.0379353529688169,-0.19558458214052,-0.0872988653778653,0.201286965048365
